tree
version=v3
num_class=1
num_tree_per_iteration=1
label_index=0
max_feature_idx=16
objective=binary sigmoid:1
feature_names=trans_tax_desc_mode_string original_gross_amt_sum original_gross_amt_mean original_gross_amt_min original_gross_amt_max original_cur_mode_string merchant_name_mode_string trans_cac_code_1_mode_string trans_cac_code_2_mode_string trans_cac_code_3_mode_string directorate_mode_string flag_nan_bill_amt_max trans_date_weekday_mode_string trans_date_day_mode_string trans_date_wom_mode_string diff_trans_mean diff_trans_max
feature_infos=none [-316.94:11994.380000000001] [-93.579999999999998:220] [-108:220] [-93.579999999999998:220.96000000000001] none none none none none none none none none none [0:15] [0:30]
tree_sizes=945 694 712 517 724 788 1542 1356 1912 1788 1900 1762 1950 1906 1795 2632 1970 1604 2190 1631 1260 1434 1344 2267 2367 2123 1529 2065 2068 1845 1920 1970 2284 2540 1590 1915 1730 2357 1562 2271 2654 2532 1844 1906 2585 2510 1703 1161

Tree=0
num_leaves=8
num_cat=0
split_feature=1 1 4 4 1 1 4
split_gain=2439.11 90.4746 12.7895 11.2932 3.51429 2.53661 1.05088
threshold=225.13000000000002 814.66500000000008 67.805000000000021 162.45500000000001 2625.6150000000002 827.23500000000013 216.07000000000002
decision_type=2 2 2 2 2 2 2
left_child=-1 2 -2 -3 5 -5 -7
right_child=1 3 -4 4 -6 6 -8
leaf_value=-1.2234118291188891 -1.7518156030964109 -1.7518156030964109 -1.5597430414534248 -1.7518156030964109 -1.7518156030964109 -1.6996464390004555 -1.7518156030964109
leaf_weight=1352.437340632081 15.627630755305288 55.848632767796516 635.75180757045746 3.0232340097427359 4.660819098353385 92.810399904847145 9.7663206756114942
leaf_count=5247 105 410 3646 24 37 570 68
internal_value=-1.75182 -1.5876 -1.56283 -1.73479 -1.71097 -1.70575 -1.70224
internal_weight=0 817.489 651.379 166.109 110.261 105.6 102.577
internal_count=10107 4860 3751 1109 699 662 638
is_linear=0
shrinkage=1


Tree=1
num_leaves=6
num_cat=0
split_feature=1 4 1 1 4
split_gain=789.477 41.0618 27.2761 2.96689 0.0128897
threshold=321.12500000000006 109.98500000000001 1402.5150000000001 333.56500000000005 85.015000000000015
decision_type=2 2 2 2 2
left_child=-1 4 3 -3 -2
right_child=1 2 -4 -5 -6
leaf_value=0.31160278295596405 0.0015329579309274813 0 0 0.12039093941280198 0
leaf_weight=2118.1277371048927 36.226899728178978 11.954320549964903 37.494496271014214 503.62222653627396 87.964300408959389
leaf_count=6343 195 69 258 2689 553
internal_value=0 0.0952636 0.110893 0.118723 0
internal_weight=0 677.262 553.071 515.577 124.191
internal_count=10107 3764 3016 2758 748
is_linear=0
shrinkage=0.1517


Tree=2
num_leaves=6
num_cat=0
split_feature=15 3 3 3 3
split_gain=830.557 89.6497 51.7945 2.61039 2.34849
threshold=0.6043478260869567 8.9950000000000028 7.6900000000000004 8.0050000000000008 -73.499999999999986
decision_type=2 2 2 2 2
left_child=-1 2 4 -4 -2
right_child=1 -3 3 -5 -6
leaf_value=0.28970129957977941 0 0.1535632655970422 -0.018172976545315411 0 0.078500813372144276
leaf_weight=1335.1193876117468 23.660808369517326 994.471829906106 91.896229639649391 45.91645984351635 702.89860992133617
leaf_count=2834 111 3535 469 194 2964
internal_value=0 0.118033 0.0617591 0 0.0769261
internal_weight=0 1858.84 864.372 137.813 726.559
internal_count=10107 7273 3738 663 3075
is_linear=0
shrinkage=0.1517


Tree=3
num_leaves=4
num_cat=0
split_feature=1 1 1
split_gain=324.609 9.77667 9.36622
threshold=444.61500000000007 460.62500000000006 1402.5150000000001
decision_type=2 2 2
left_child=-1 -2 -3
right_child=1 2 -4
leaf_value=0.17635959558663306 0 0.043483255883770444 0
leaf_weight=2903.9835402071476 19.779634848237038 485.63481065630913 43.014475882053375
leaf_count=7321 117 2403 266
internal_value=0 0.0318558 0.0375622
internal_weight=0 548.429 528.649
internal_count=10107 2786 2669
is_linear=0
shrinkage=0.1517


Tree=4
num_leaves=6
num_cat=0
split_feature=16 3 3 3 3
split_gain=612.9 58.4228 24.8994 6.73576 0.892603
threshold=3.5000000000000004 9.9450000000000021 7.6900000000000004 8.0050000000000008 -73.499999999999986
decision_type=2 2 2 2 2
left_child=-1 2 4 -4 -2
right_child=1 -3 3 -5 -6
leaf_value=0.19166663646453283 0 0.085665531406528536 -0.031863833696535261 0 0.035585128682504158
leaf_weight=1707.1728728860617 24.90167124569416 1006.4454466104507 92.564205452799797 76.987527742981911 732.73246869444847
leaf_count=3151 110 3209 455 300 2882
internal_value=0 0.0595678 0.021692 -0.0108133 0.0347112
internal_weight=0 1933.63 927.186 169.552 757.634
internal_count=10107 6956 3747 755 2992
is_linear=0
shrinkage=0.1517


Tree=5
num_leaves=7
num_cat=0
split_feature=15 1 1 15 15 1
split_gain=319.443 75.2712 57.808 5.33903 2.45394 1.0459
threshold=1.5131578947368423 548.2700000000001 1402.5150000000001 2.8452380952380958 1.9045454545454548 509.38000000000005
decision_type=2 2 2 2 2 2
left_child=2 5 -1 4 -3 -2
right_child=1 3 -4 -5 -6 -7
leaf_value=0.14830255446825488 0.060583120458630228 0 0 0 -0.039720486375932444 0
leaf_weight=2039.6700168550014 1432.9245827049017 65.61438176035881 41.023904040455818 47.950089424848557 87.188660189509392 35.953864023089409
leaf_count=4275 4383 335 240 213 493 168
internal_value=0 0.0472804 0.144793 -0.0185654 -0.0303113 0.0597513
internal_weight=0 1669.63 2080.69 200.753 152.803 1468.88
internal_count=10107 5592 4515 1041 828 4551
is_linear=0
shrinkage=0.1517


Tree=6
num_leaves=15
num_cat=0
split_feature=1 3 1 3 3 1 3 1 3 1 3 3 3 3
split_gain=157.655 63.8623 35.9968 10.102 10.6717 8.09748 4.45133 3.97937 3.14209 1.81674 1.7793 0.986732 0.355286 0.205035
threshold=146.96500000000003 9.9450000000000021 575.7650000000001 7.6900000000000004 3.8850000000000002 814.66500000000008 -58.809999999999995 198.25000000000003 -6.294999999999999 854.34500000000014 2.3550000000000004 8.0050000000000008 3.3350000000000004 -73.499999999999986
decision_type=2 2 2 2 2 2 2 2 2 2 2 2 2 2
left_child=6 3 -3 4 8 7 -1 -6 13 11 -10 -5 -12 -2
right_child=1 2 -4 9 5 -7 -8 -9 10 -11 12 -13 -14 -15
leaf_value=0 0 0.081212851783172058 0 -0.026666305201010765 0 0 0.11863961456842625 0.052387266053906957 -0.018733953372593454 0 0.0067665888645176211 0 -0.002718108163746073 0.013351012690078636
leaf_weight=17.7649215310812 21.645145490765572 877.77179476618767 142.98421648144722 62.932200625538826 35.083521917462349 39.501600131392479 2012.4070094674826 180.1030580252409 120.4649817943573 13.064509645104406 69.534601017832756 50.585240319371223 27.972106099128723 157.45574136078358
leaf_count=46 97 2353 675 320 101 209 3833 597 557 72 258 211 147 631
internal_value=0 0.046669 0.0707157 0.00583106 0.0171343 0.0366643 0.117937 0.0461396 0 -0.014291 -0.0103386 -0.0205614 0 0.0120987
internal_weight=0 1799.1 1020.76 778.343 651.761 254.688 2030.17 215.187 397.073 126.582 217.972 113.517 97.5067 179.101
internal_count=10107 6228 3028 3200 2597 907 3879 698 1690 603 962 531 405 728
is_linear=0
shrinkage=0.1517


Tree=7
num_leaves=13
num_cat=0
split_feature=3 3 4 3 3 3 3 4 4 4 4 3
split_gain=122.282 41.3813 15.9746 9.19315 5.45412 8.43053 3.23055 2.38594 2.13121 1.66374 1.64951 0.859652
threshold=8.9950000000000028 7.6900000000000004 16.035000000000004 8.0050000000000008 3.8850000000000002 -6.294999999999999 -73.499999999999986 24.050000000000004 203.01500000000001 75.965000000000018 34.960000000000008 7.9850000000000012
decision_type=2 2 2 2 2 2 2 2 2 2 2 2
left_child=1 2 -1 11 5 6 -4 -6 9 -7 -8 -3
right_child=-2 3 4 -5 7 8 10 -9 -10 -11 -12 -13
leaf_value=0.081598427434173337 0.094002898147969097 0 0 0 0 0 0 0.037122929569052651 0 -0.019884990259950941 0.030657111648255742 -0.039701045739567023
leaf_weight=197.28123044967651 2576.427291110158 15.403700724244116 26.20778900384903 65.469109877943993 12.117456570267676 88.543703958392143 8.7825841754674894 344.55979053676128 28.975236907601357 182.99937218427658 214.11483581364155 110.69698265194893
leaf_count=338 5768 59 117 223 36 257 27 1117 126 806 747 486
internal_value=0 0.0281349 0.0405619 -0.0173736 0.020497 0.000441678 0.0226208 0.034897 -0.00726556 -0.0138807 0.0281453 -0.0370443
internal_weight=0 1295.15 1103.58 191.57 906.301 549.624 249.105 356.677 300.518 271.543 222.897 126.101
internal_count=10107 4339 3571 768 3233 2080 891 1153 1189 1063 774 545
is_linear=0
shrinkage=0.1517


Tree=8
num_leaves=19
num_cat=0
split_feature=1 1 4 1 4 1 4 1 4 4 1 1 1 1 1 4 1 4
split_gain=115.418 34.9542 47.8751 19.8434 14.8644 8.10859 5.16582 4.71899 5.67432 3.85314 1.29165 1.24478 4.90862 1.06738 0.750942 0.501512 0.0599622 0.0182332
threshold=84.745000000000019 727.11500000000012 107.98500000000001 238.08500000000004 68.445000000000007 548.2700000000001 162.45500000000001 215.92000000000004 107.72000000000001 85.015000000000015 85.990000000000023 112.96000000000001 191.38000000000002 87.495000000000019 565.68000000000018 216.07000000000002 557.23500000000013 67.805000000000021
decision_type=2 2 2 2 2 2 2 2 2 2 2 2 2 2 2 2 2 2
left_child=-1 2 3 4 11 -4 -3 8 10 17 -6 13 -13 -2 -11 -8 -7 -5
right_child=1 6 5 9 7 16 15 -9 -10 14 -12 12 -14 -15 -16 -17 -18 -19
leaf_value=0.10016150217963188 0 -0.024585100695149249 0.074572512841567309 0 0 0 0.0076649802804046509 0 0 -0.023423105390059644 0.045905637681876263 -0.024769674578427357 0 0.013097884923183709 0 0 0.0024299572610854813 0.0015594798250823962
leaf_weight=1384.3158495426178 10.844052523374556 101.16372361779213 928.79717262089252 19.735837817192078 11.209861367940901 5.4629999399185172 163.21975731104612 34.523614406585693 9.8150967210531217 142.52305129170418 558.47732569277287 122.4080972969532 31.35593393445015 118.97666552662849 16.667297303676605 18.735774926841259 143.6959442794323 82.534045845270157
leaf_count=2462 35 536 2482 94 26 30 746 106 30 582 1208 381 71 266 76 100 596 280
internal_value=0 0.0386217 0.044931 0.0160195 0.0276596 0.0684915 0 0.0394855 0.0424465 -0.0078429 0.0450162 0 -0.00843864 0.00716579 -0.021038 0.00350234 0 0
internal_weight=0 2520.15 2237.03 1159.07 897.611 1077.96 283.119 614.026 579.502 261.46 569.687 283.585 153.764 129.821 159.19 181.956 149.159 102.27
internal_count=10107 7645 6263 3155 2123 3108 1382 1370 1264 1032 1234 753 452 301 658 846 626 374
is_linear=0
shrinkage=0.1517


Tree=9
num_leaves=18
num_cat=0
split_feature=15 3 3 3 3 15 3 3 15 15 15 15 15 3 3 15 3
split_gain=202.004 23.3365 20.2586 7.73031 6.68856 3.90135 1.85887 1.8338 4.84928 1.7178 1.54913 0.805302 0.757892 0.900686 0.757505 0.221089 0.183342
threshold=1.5419580419580423 9.9450000000000021 5.6950000000000012 7.6900000000000004 4.1850000000000014 6.8750000000000009 3.8850000000000002 -6.294999999999999 2.035714285714286 1.6568627450980393 1.8619047619047622 2.3038461538461541 7.8333333333333348 0.77500000000000013 -73.499999999999986 12.750000000000002 -58.809999999999995
decision_type=2 2 2 2 2 2 2 2 2 2 2 2 2 2 2 2 2
left_child=2 3 4 6 14 -5 7 11 -9 -3 -8 -2 13 -10 -1 -11 -13
right_child=1 9 -4 5 -6 -7 10 8 12 15 -12 16 -14 -15 -16 -17 -18
leaf_value=0 0 0 0.094964415643428945 -0.035213753012279407 0 0 0 0 0 0.027763093880794835 0.016021063951948848 0 0 -0.032718018150671851 0.03544770449279519 0 0.01188588362732537
leaf_weight=14.223858729004858 49.234034284949303 10.709086045622824 1722.3782077208161 133.52855222672224 58.650390937924385 20.396878361701965 29.508180379867554 61.886375859379768 27.040392488241196 1025.2823396027088 215.55333921313286 15.781841844320295 9.318785220384596 89.328533113002777 350.59093931317329 12.351173445582388 71.045288503170013
leaf_count=54 212 45 3174 594 199 55 122 237 97 2914 632 54 24 357 1118 31 188
internal_value=0 0.0124291 0.0852799 -0.00341901 0.0272852 -0.0277173 0 0 -0.0123303 0.0267578 0.0112992 0 -0.0267031 -0.0288057 0.0343353 0.0275288 0.0102374
internal_weight=0 1770.96 2145.84 722.622 423.465 153.925 568.697 323.635 187.574 1048.34 245.062 136.061 125.688 116.369 364.815 1037.63 86.8271
internal_count=10107 5562 4545 2572 1371 649 1923 1169 715 2990 754 454 478 454 1172 2945 242
is_linear=0
shrinkage=0.1517


Tree=10
num_leaves=19
num_cat=0
split_feature=15 4 15 15 15 4 4 15 4 4 4 15 15 15 4 15 15 15
split_gain=149.975 3.51503 12.3654 5.23486 4.48152 4.90959 4.26243 2.5085 1.8924 1.11021 1.03678 0.689047 0.388955 0.390227 0.342598 0.165171 0.0027692 0.193716
threshold=1.5590277777777779 146.58000000000001 6.1250000000000009 1.6306818181818186 2.035714285714286 46.005000000000003 97.090000000000018 6.416666666666667 218.64500000000004 96.010000000000005 105.00500000000001 2.6125000000000003 4.5500000000000007 2.5227272727272729 22.985000000000003 5.5500000000000007 2.6125000000000003 5.366666666666668
decision_type=2 2 2 2 2 2 2 2 2 2 2 2 2 2 2 2 2 2
left_child=-1 2 4 -3 10 16 -4 8 -5 11 14 -7 13 -11 -2 -14 -6 -18
right_child=1 3 6 7 5 9 -8 -9 -10 12 -12 -13 15 -15 -16 -17 17 -19
leaf_value=0.073375798966033287 0 0 0.033512507737049349 0.031951376539877598 0 0 0 0 0 0 0 -0.025621719337578199 0.0051658117550616263 -0.0083604870775908832 0.014179350763475143 0 0.0045712622321103982 0
leaf_weight=2151.454104155302 10.599184408783911 11.494602039456366 243.83106744289398 390.23055894672871 23.323227345943451 63.504082962870598 56.730052545666695 33.67557018995285 11.241186425089834 63.468142360448837 49.51513734459877 303.44199641048908 52.438983827829361 166.53539775311947 121.01387822628021 15.49223333597183 126.38539423048496 22.405684262514114
leaf_count=4586 29 66 546 1382 73 208 161 102 53 230 201 971 125 595 360 52 304 63
internal_value=0 0.0101552 0.00162287 0.0223688 -0.00321348 -0.0105866 0.0266234 0.0272161 0.0301485 -0.0169499 0.0062767 -0.0230334 0 -0.00528881 0.0124845 0 0 0.000516599
internal_weight=0 1765.33 1318.68 446.642 1018.12 836.995 300.561 435.147 401.472 664.881 181.128 366.946 297.935 230.004 131.613 67.9312 172.114 148.791
internal_count=10107 5521 3918 1603 3211 2621 707 1537 1435 2181 590 1179 1002 825 389 177 440 367
is_linear=0
shrinkage=0.1517


Tree=11
num_leaves=18
num_cat=0
split_feature=3 2 2 3 2 3 3 3 2 2 3 2 3 2 3 2 2
split_gain=62.3947 30.1849 25.0944 16.4625 7.5043 2.36302 2.15636 0.933209 0.669363 0.48998 0.88326 0.78559 0.485887 0.370088 0.237006 0.17876 0.0148149
threshold=9.9450000000000021 7.9850000000000012 48.524375000000013 7.9850000000000012 15.966875000000002 -95.959999999999994 -73.499999999999986 8.9850000000000012 10.005000000000001 47.650000000000013 -9.9849999999999977 47.018750000000004 8.0050000000000008 8.5741666666666685 204.54000000000005 53.228333333333346 14.885000000000003
decision_type=2 2 2 2 2 2 2 2 2 2 2 2 2 2 2 2 2
left_child=1 -1 4 6 13 -6 -4 9 -2 10 -7 -12 15 -3 -10 -5 -15
right_child=8 2 3 12 5 7 -8 -9 14 -11 11 -13 -14 16 -16 -17 -18
leaf_value=0.052677307205148211 0 0 0 0 0 0 0.043336325619028594 0 0.05493060153106822 0 -0.031940294394136842 0 0 0.0066071080402899628 0 -0.011126092552681162 0
leaf_weight=206.96153892576694 9.2037426531314832 31.927981302142143 6.427455246448516 7.6648149192333213 7.7762140035629264 111.634825989604 314.24286216497421 28.933649003505707 2513.8440541327 12.250641688704489 444.2356144785881 7.507467493414878 40.740353763103485 112.90809391438961 11.883171185851095 33.559578821063042 16.549829289317131
leaf_count=364 19 92 31 34 27 412 1100 83 5574 49 1618 30 156 256 25 192 45
internal_value=0 0.00937155 0 0.0259096 -0.0169033 -0.024439 0.0415669 -0.0261198 0.0546368 -0.0272794 -0.0278456 -0.0311877 0 0 0.0547867 -0.00923094 0.00622963
internal_weight=0 1383.32 1176.36 402.635 773.724 612.338 320.67 604.562 2534.93 575.629 563.378 451.743 81.9647 161.386 2525.73 41.2244 129.458
internal_count=10107 4489 4125 1513 2612 2219 1131 2192 5618 2109 2060 1648 382 393 5599 226 301
is_linear=0
shrinkage=0.1517


Tree=12
num_leaves=19
num_cat=0
split_feature=15 3 3 15 15 15 3 3 15 15 3 15 3 15 15 15 3 3
split_gain=109.856 16.5807 8.51675 5.48127 3.96193 6.24062 2.27894 3.27381 3.0879 2.55559 1.33879 0.543729 0.652276 0.226793 0.200933 0.174556 0.0985736 0.469495
threshold=0.6043478260869567 8.0050000000000008 7.6900000000000004 1.0930735930735933 2.035714285714286 2.8452380952380958 3.8850000000000002 -6.294999999999999 2.035714285714286 1.1026315789473686 -58.809999999999995 7.8333333333333348 0.77500000000000013 12.750000000000002 1.4868421052631582 2.5634920634920637 0.77500000000000013 3.3350000000000004
decision_type=2 2 2 2 2 2 2 2 2 2 2 2 2 2 2 2 2 2
left_child=-1 2 6 -4 -3 15 7 9 16 -2 -11 12 -10 -7 -8 -6 -9 -18
right_child=1 4 3 -5 5 13 14 8 11 10 -12 -13 -14 -15 -16 -17 17 -19
leaf_value=0.064980938521178616 0 0.039716437470298606 0 -0.042193290370623665 0 0.015756891773555253 0 -0.0022096929927886986 0 0 0.019241875612874972 0 -0.030681299107195945 0 0.01283289094196623 -0.0057167427232366437 0.0079956702717534547 0
leaf_weight=1589.39581990242 40.948468640446663 330.69968202710152 8.7737100869417173 90.401074014604092 122.34121352434158 818.91760067641735 84.492833971977234 39.987407371401787 27.238799020648003 35.071911960840225 167.99758759140968 9.3803291618823987 88.492048874497414 12.422682002186773 263.60738424956799 56.822675839066505 104.55756504833698 27.196695879101753
leaf_count=2834 177 876 29 440 404 2196 310 195 97 139 517 24 357 31 794 222 360 105
internal_value=0 0.010538 -0.000422445 -0.0321079 0.0213119 0.00839793 0.00109048 0 -0.0133975 0.00420379 0.0148598 -0.0255567 -0.0272717 0.0154683 0.011062 -0.00170373 0 0.00271431
internal_weight=0 2329.35 988.146 99.1748 1341.2 1010.5 888.971 540.871 296.853 244.018 203.069 125.111 115.731 831.34 348.1 179.164 171.742 131.754
internal_count=10107 7273 3544 469 3729 2853 3075 1971 1138 833 656 478 454 2227 1104 626 660 465
is_linear=0
shrinkage=0.1517


Tree=13
num_leaves=19
num_cat=0
split_feature=15 4 4 15 15 15 4 15 4 15 15 4 4 15 15 15 4 4
split_gain=83.1203 4.32728 4.86632 5.72732 4.34088 6.59524 3.29049 3.178 2.44454 1.80136 0.972767 0.689856 0.427464 0.366791 6.81927 0.163455 0.063389 0.390453
threshold=1.5419580419580423 49.255000000000003 176.33500000000001 1.7928571428571431 2.035714285714286 7.5833333333333348 96.010000000000005 4.916666666666667 217.98500000000004 8.4166666666666696 1.966666666666667 153.74000000000004 96.595000000000013 0.6043478260869567 0.92450142450142458 8.8333333333333339 97.705000000000013 159.98500000000004
decision_type=2 2 2 2 2 2 2 2 2 2 2 2 2 2 2 2 2 2
left_child=13 7 4 -4 11 6 -6 -2 9 10 -5 -3 15 -1 -15 -7 -8 -18
right_child=1 2 3 8 5 12 16 -9 -10 -11 -12 -13 -14 14 -16 -17 17 -19
leaf_value=0.056329267801700306 0 0.0084376008631674698 0 0 -0.026531323230391379 0 0 0.028309108041593228 0 0 0.033646316616672806 0 0 0 0.026579726870116092 0.0095257868004661982 -0.0046564259278416347 0
leaf_weight=1570.7793046236038 171.73768766224384 166.61450251936913 27.800484493374825 13.7514671087265 420.9374952763319 21.888472765684128 22.978548213839531 143.94016960263252 12.630946353077887 5.8443833738565436 200.77351401746273 31.197982579469681 37.109094247221947 100.85236911475658 436.72122573852539 60.491712987422943 391.69321209937334 66.366211578249931
leaf_count=2834 456 554 140 63 1324 55 61 304 59 20 640 134 106 379 1332 114 1308 224
internal_value=0 0.00279795 0 0.0148422 -0.00514884 -0.0109066 -0.0169183 0.0167888 0.0254422 0.0292388 0.0317402 0.00288384 0.000521463 0.0499112 0.0185173 0.0075761 0 -0.00163147
internal_weight=0 1795.76 1480.08 260.801 1219.28 1021.46 901.975 315.678 233 220.369 214.525 197.812 119.489 2108.35 537.574 82.3802 481.038 458.059
internal_count=10107 5562 4802 922 3880 3192 2917 760 782 723 703 688 275 4545 1711 169 1593 1532
is_linear=0
shrinkage=0.1517


Tree=14
num_leaves=18
num_cat=0
split_feature=15 4 4 15 15 15 4 15 4 4 15 4 15 4 4 4 4
split_gain=59.7769 3.57941 4.01068 4.99505 6.16714 3.49395 2.30729 2.29759 2.79404 2.1282 1.04746 0.524331 0.294775 0.00443462 0.202617 0.00098246 0.0710396
threshold=1.5590277777777779 38.640000000000008 146.58000000000001 7.416666666666667 2.6125000000000003 2.3875000000000006 217.04000000000005 6.416666666666667 159.00500000000002 46.005000000000003 2.6125000000000003 96.595000000000013 8.1666666666666696 181.13500000000002 217.04000000000005 106.21500000000002 51.400000000000006
decision_type=2 2 2 2 2 2 2 2 2 2 2 2 2 2 2 2 2
left_child=-1 10 3 4 15 13 7 8 -7 -6 -2 -5 -12 -4 -15 16 -3
right_child=1 2 5 11 9 6 -8 -9 -10 -11 12 -13 -14 14 -16 -17 -18
leaf_value=0.043252885751091402 0 0 0 0.0098919485169011341 0 0 0 0 0.032821727588216054 -0.021571113886825286 0.022532013201011419 0 0 -0.0055667385986361518 0 0 0.0024993711307056605
leaf_weight=2103.7750783860683 39.550874710083008 26.124716117978096 82.415677152574062 112.55973456799984 38.164597570896149 64.271306931972504 9.7267752289772016 33.230448082089424 198.52597127854824 619.7393042743206 159.50169815123081 31.580212086439133 21.325326606631279 63.761334255337715 9.2745724916458112 100.25594915449619 175.32298769056797
leaf_count=4586 105 79 303 238 94 215 46 98 607 1956 356 87 53 297 37 386 564
internal_value=0 0.00267395 0 -0.00518999 -0.0115224 0.0104456 0.0188452 0.0223973 0.026434 -0.0193929 0.0175669 0.00575482 0.0210397 0 -0.000791174 0 0.000278524
internal_weight=0 1785.33 1564.95 1103.75 959.608 461.206 305.755 296.028 262.797 657.904 220.378 144.14 180.827 155.452 73.0359 301.704 201.448
internal_count=10107 5521 5007 3404 3079 1603 966 920 822 2050 514 325 409 637 334 1029 643
is_linear=0
shrinkage=0.1517


Tree=15
num_leaves=27
num_cat=0
split_feature=3 4 4 4 3 4 3 3 3 4 3 3 4 3 4 3 3 3 3 3 4 4 4 4 4 3
split_gain=39.1397 13.0714 12.1301 24.1699 11.1018 5.09352 2.86521 1.65914 1.33475 2.52197 4.34468 3.76092 4.48254 3.37337 1.87545 0.898723 0.874102 0.829319 2.43459 0.491226 0.317249 0.287065 0.170993 0.0991317 0.969055 0.000520149
threshold=18.030000000000005 49.995000000000012 78.080000000000013 148.48000000000005 14.270000000000001 92.00500000000001 37.190000000000005 204.54000000000005 9.9450000000000021 199.95500000000001 -6.294999999999999 6.3150000000000004 114.29000000000001 7.6900000000000004 210.05000000000004 -51.264999999999993 2.4650000000000003 89.160000000000011 52.125000000000007 83.075000000000017 95.015000000000015 190.02000000000001 139.43500000000003 105.00500000000001 151.52000000000004 7.9850000000000012
decision_type=2 2 2 2 2 2 2 2 2 2 2 2 2 2 2 2 2 2 2 2 2 2 2 2 2 2
left_child=1 4 -2 17 -1 15 -5 -8 9 10 23 12 -12 16 -10 -3 -11 18 -4 -20 -19 22 -14 -7 -25 -13
right_child=2 5 3 6 -6 8 7 -9 14 13 11 25 21 -15 -16 -17 -18 20 19 -21 -22 -23 -24 24 -26 -27
leaf_value=0.030210476385360934 0.05400757998732468 0 0 0 0 0 0.058405171594101093 0 0.015482185078300103 0 0 0.00027693318213578973 0 0 0 -0.019109638880448213 0.02667547334986043 0 -0.015659709361533831 0 0.0087661394563400795 0 -0.039424016952179196 0.012494900656341927 0 0
leaf_weight=552.0692757666111 896.93804076313972 14.467165246605871 234.75187464058399 98.231870338320732 60.195802971720695 14.991010099649428 206.8964626789093 11.585834518074988 218.20485927164555 58.32085993885994 59.637941122055054 66.080675110220909 66.763100624084473 17.256933823227882 14.905093088746069 299.60399402678013 72.682530894875526 56.983508065342903 196.37348833680153 64.037929192185402 215.69352366030216 26.029564887285233 128.91757875680923 67.453676536679268 69.193086460232735 91.036162458360195
leaf_count=1163 1645 40 648 282 149 60 420 25 592 243 207 202 251 98 60 957 202 120 608 145 448 104 569 200 268 401
internal_value=0 0.00414054 0.0377499 0.017322 0.0216943 -0.00178366 0.0472664 0.0562074 4.64057e-06 0 -0.00767124 -0.0162767 -0.0247 0.00869549 0.00975014 -0.017347 0.0208034 0 -0.00222418 -0.0129673 0.00668139 -0.0325231 -0.0343111 0 0.00317261 0
internal_weight=0 1897.81 1981.49 1084.55 612.265 1285.54 316.714 218.482 971.473 738.363 590.103 438.465 281.348 148.26 233.11 314.071 131.003 767.84 495.163 260.411 272.677 221.71 195.681 151.638 136.647 157.117
internal_count=10107 5766 4341 2696 1312 4454 727 445 3457 2805 2262 1734 1131 543 652 997 445 1969 1401 753 568 924 820 528 468 603
is_linear=0
shrinkage=0.1517


Tree=16
num_leaves=20
num_cat=0
split_feature=15 4 4 15 15 4 4 4 15 15 4 15 4 15 4 4 4 4 4
split_gain=40.8327 4.0256 6.62018 5.43614 3.4131 5.11606 1.8611 1.45419 2.45296 2.90817 1.16731 1.06266 0.710461 0.742726 0.709022 0.207483 0.160525 0.0275086 0.0201944
threshold=2.035714285714286 78.080000000000013 107.98500000000001 1.5419580419580423 3.3875000000000006 186.73500000000004 49.255000000000003 117.08500000000001 8.5833333333333339 3.8452380952380958 102.94500000000001 4.916666666666667 215.14500000000001 8.4166666666666696 61.060000000000009 27.080000000000002 96.595000000000013 217.04000000000005 52.485000000000007
decision_type=2 2 2 2 2 2 2 2 2 2 2 2 2 2 2 2 2 2 2
left_child=1 -1 -3 -4 5 15 11 8 9 -8 14 -6 13 -9 -11 -2 18 -7 -10
right_child=4 2 3 -5 6 17 7 12 16 10 -12 -13 -14 -15 -16 -17 -18 -19 -20
leaf_value=0.043198261457915957 0 0 0.029002684881120545 0 0 0.0019313681545473937 0 0.013664432583877542 0 0 0 0.020867214373122417 0 0 -0.023332862370286263 -0.017901797801740706 0 0 0.005343452230438259
leaf_weight=1146.0615174174309 25.697153300046921 405.24768291413784 656.52544102072716 159.67892292141914 69.0073451846838 79.71065816283226 77.214252129197121 234.15103656053543 5.8803361356258383 66.095095127820969 35.39712230861187 144.65004470944405 7.4491841048002234 21.952376008033752 227.65342219173908 428.49260156601667 12.159409359097479 7.9870442748069754 55.657441481947899
leaf_count=2125 67 1007 1820 639 176 262 226 665 14 178 97 304 31 63 711 1539 40 39 104
internal_value=0 0.0323035 0.016348 0.0235561 0 -0.00831169 0.00577209 0 -0.00334613 -0.0112511 -0.0175948 0.0159984 0.00875218 0.0112022 -0.0202023 -0.0172211 0 0 0.00493738
internal_weight=0 2367.51 1221.45 816.204 1499.15 541.887 957.267 743.61 480.057 406.36 329.146 213.657 263.553 256.103 293.749 454.19 73.6972 87.6977 61.5378
internal_count=10107 5591 3466 2459 4516 1907 2609 2129 1370 1212 986 480 759 728 889 1606 158 301 118
is_linear=0
shrinkage=0.1517


Tree=17
num_leaves=16
num_cat=0
split_feature=15 2 15 2 15 2 2 2 2 15 15 2 15 15 15
split_gain=30.1854 16.8623 10.5977 8.75605 5.90178 2.86642 2.68684 2.82487 3.2072 0.575189 0.281035 0.439507 1.14165 0.11439 0.139222
threshold=0.6043478260869567 45.761965811965815 4.366666666666668 17.012500000000003 3.535714285714286 42.351785714285725 200.80000000000004 18.998888888888896 7.9850000000000012 0.75337837837837851 8.1666666666666696 38.07500000000001 4.5500000000000007 7.416666666666667 12.250000000000002
decision_type=2 2 2 2 2 2 2 2 2 2 2 2 2 2 2
left_child=6 2 3 -2 9 -5 7 8 -1 -3 11 12 -4 -6 -15
right_child=1 4 10 5 13 -7 -8 -9 -10 -11 -12 -13 -14 14 -16
leaf_value=0.018586968969351955 0 0 0 -0.031423441795559393 0 0 0 0.039638174098847602 0 0.023704627948700558 0 0 0.015524371758454171 0.0052116026580299735 0
leaf_weight=123.6385790258646 137.14120864868164 21.209550619125366 13.059042036533354 476.0579099804163 405.53415451943874 77.520745202898979 12.318817451596258 1210.1191939711571 163.62799225747585 837.78776448220015 44.773231744766235 39.500094011425972 156.55131578445435 124.88090091943741 10.633647710084913
leaf_count=206 335 75 40 1656 1230 284 29 2243 356 2771 109 106 354 284 29
internal_value=0 0.00445812 -0.00787487 -0.0193221 0.0158064 -0.0276767 0.0346071 0.0352973 0 0.0231388 0.0069407 0.00877533 0.0112997 0 0.00341658
internal_weight=0 2344.65 944.604 690.72 1400.05 553.579 1509.7 1497.39 287.267 858.997 253.884 209.11 169.61 541.049 135.515
internal_count=10107 7273 2884 2275 4389 1940 2834 2805 562 2846 609 500 394 1543 313
is_linear=0
shrinkage=0.1517


Tree=18
num_leaves=22
num_cat=0
split_feature=16 3 3 3 16 16 16 3 3 16 3 3 3 16 3 16 16 16 3 3 16
split_gain=57.2958 8.51924 7.44381 4.67304 1.80228 3.41354 0.973293 1.57605 1.89195 1.00045 3.05289 2.31223 0.639907 0.457804 0.758077 0.305795 0.243314 0.666303 0.136783 0.125232 0.116117
threshold=5.5000000000000009 8.0050000000000008 -7.9849999999999994 3.4950000000000006 18.500000000000004 9.5000000000000018 14.500000000000002 24.005000000000006 85.015000000000015 11.500000000000002 10.005000000000001 107.99000000000002 204.54000000000005 9.5000000000000018 35.035000000000004 7.5000000000000009 12.500000000000002 15.500000000000002 -6.294999999999999 -73.499999999999986 6.5000000000000009
decision_type=2 2 2 2 2 2 2 2 2 2 2 2 2 2 2 2 2 2 2 2 2
left_child=3 2 16 18 5 20 9 -8 -9 13 -11 -12 -5 15 -15 -3 -2 -18 19 -1 -4
right_child=1 6 4 12 -6 -7 7 8 -10 10 11 -13 -14 14 -16 -17 17 -19 -20 -21 -22
leaf_value=0 0 0.0033370747265135448 -0.0038337678119639449 0.035880499958251516 0 -0.040462191159555905 0 0.022270482990387232 0 0 -0.023223238821304011 0 0 0.014055969697426569 0 -0.0033527394365220325 0.013254793840534504 0 0 0.0052226298352476578 0
leaf_weight=13.260745972394941 119.69312871992588 274.01297850906849 91.808374747633934 1781.1866447627544 43.531199663877487 203.54424720257521 89.14230714738369 144.99772346019745 26.395479142665863 23.809191465377808 165.00814674794674 9.8540142923593503 11.298382237553595 96.974294871091843 52.088827222585678 175.42048606276512 29.147197678685188 13.654085695743559 131.42040005326271 131.06452430784702 215.85954218357801
leaf_count=45 441 814 378 3589 127 802 247 322 77 58 531 25 24 247 166 563 63 46 406 348 788
internal_value=0 -0.00201154 -0.0153116 0.0325505 -0.0236479 -0.0258593 0.00353548 0.0102383 0.016713 0 -0.00697987 -0.0178424 0.0356632 0.0036074 0.00903037 0 0 0.00649333 0 0.00366515 0
internal_weight=0 1774.94 717.238 2068.23 554.743 511.212 1057.7 260.536 171.393 797.168 198.671 174.862 1792.49 598.497 149.063 449.433 162.494 42.8013 275.746 144.325 307.668
internal_count=10107 5695 2645 4412 2095 1968 3050 646 399 2404 614 556 3613 1790 413 1377 550 109 799 393 1166
is_linear=0
shrinkage=0.1517


Tree=19
num_leaves=16
num_cat=0
split_feature=3 15 15 15 3 15 3 3 15 3 3 3 3 3 3
split_gain=21.9939 5.34324 4.16264 6.77446 3.4592 3.05927 2.78782 1.21497 0.774502 0.44171 0.289373 0.263316 0.189874 0.0383089 0.0108522
threshold=18.030000000000005 3.535714285714286 1.7029411764705884 6.1250000000000009 13.985000000000001 8.4166666666666696 5.6950000000000012 -9.9849999999999977 4.5500000000000007 204.54000000000005 24.005000000000006 -73.499999999999986 75.685000000000016 15.955000000000002 -6.294999999999999
decision_type=2 2 2 2 2 2 2 2 2 2 2 2 2 2 2
left_child=2 9 4 -4 6 -5 7 11 -3 -2 -10 -1 -12 -6 -9
right_child=1 8 3 5 13 -7 -8 14 10 -11 12 -13 -14 -15 -16
leaf_value=0 0.029774378021244538 0 -0.013397159881563375 0.02248221600599682 -0.0025318515699570675 0 0.02121999827060481 0 0 0 0.0096111960138447316 0.011809144774071138 0 0 -0.0019012929932771619
leaf_weight=17.191851779818535 1447.8022881448269 124.0861494988203 802.8629587739706 93.228175789117813 47.528948366641998 35.146184667944908 383.01211351156235 27.40761299431324 46.206122308969498 11.298382237553595 222.33942160010338 145.71812047064304 86.029878094792366 40.719233125448227 296.49369248747826
leaf_count=63 3041 389 2789 200 133 101 905 86 116 24 534 419 237 83 987
internal_value=0 0.0246304 0 -0.00510022 0.00812739 0.010085 0.0124525 0 0 0.0295548 0.00633175 0.0102964 0.00783949 0 -0.00166498
internal_weight=0 1937.76 1889.31 931.237 958.072 128.374 869.823 486.811 478.662 1459.1 354.575 162.91 308.369 88.2482 323.901
internal_count=10107 4341 5766 3090 2676 301 2460 1555 1276 3065 887 482 771 216 1073
is_linear=0
shrinkage=0.1517


Tree=20
num_leaves=12
num_cat=0
split_feature=15 15 2 15 15 2 2 2 2 15 15
split_gain=13.3431 2.99775 4.74361 0.942125 2.19449 3.55374 3.0043 0.848873 0.199884 0.156548 1.49494
threshold=2.035714285714286 3.3875000000000006 79.00500000000001 3.535714285714286 4.366666666666668 75.010000000000019 119.2 17.012500000000003 119.2 6.1250000000000009 5.1000000000000005
decision_type=2 2 2 2 2 2 2 2 2 2 2
left_child=-1 2 7 -3 6 9 -5 -2 -7 10 -6
right_child=1 3 -4 4 5 8 -8 -9 -10 -11 -12
leaf_value=0.018855178902907496 0 0.016812590069357501 0 -0.017597846703636934 0.011762884593232369 -0.0043024303424816883 0 -0.019039988011794507 0 0.018982910376574423 -0.0048174343861947235
leaf_weight=2319.486651584506 46.542882934212685 98.574903130531311 125.70672850310802 191.7104733735323 128.23252026736736 158.49766284227371 15.029620096087454 368.08076641708612 35.715258851647377 236.85488018393517 91.282787993550301
leaf_count=5591 127 243 430 648 312 476 35 1350 92 527 276
internal_value=0 0 -0.00769923 0.00549859 0 0.00661411 -0.00781078 -0.0170403 0 0.0144561 0
internal_weight=0 1496.23 540.33 955.898 857.323 650.583 206.74 414.624 194.213 456.37 219.515
internal_count=10107 4516 1907 2609 2366 1683 683 1477 568 1115 588
is_linear=0
shrinkage=0.1517


Tree=21
num_leaves=14
num_cat=0
split_feature=1 3 3 3 1 3 3 1 1 3 1 1 3
split_gain=36.5083 7.07836 6.65092 24.7073 7.89286 5.43021 5.37948 2.51333 1.58233 1.38395 0.822184 0.646873 0.350095
threshold=427.59500000000008 91.370000000000019 8.0050000000000008 7.410000000000001 16.805000000000003 3.8850000000000002 1.1050000000000002 361.95500000000004 21.445000000000004 204.54000000000005 328.19500000000005 5.2300000000000004 -51.264999999999993
decision_type=2 2 2 2 2 2 2 2 2 2 2 2 2
left_child=2 12 3 5 -4 6 10 8 -8 -6 -1 -7 -2
right_child=1 -3 4 -5 9 11 7 -9 -10 -11 -12 -13 -14
leaf_value=0.017456331231823653 0 0 0 -0.042362518972922807 0.025295502522239454 0 0 0 -0.026123458887893164 0 0 0.029627898889543487 -0.022480187641836159
leaf_weight=219.9958770275116 30.466931089758873 30.924828514456749 98.902295470237732 108.64676421880722 2122.7228760272264 12.10484206676483 39.771932691335678 13.397460907697676 118.82317879796028 9.823115333914755 34.303164884448051 311.11590433120728 657.58875399827957
leaf_count=529 128 80 214 419 4562 25 84 46 418 23 134 750 2695
internal_value=0 -0.0159904 0.0181675 0.000403493 0.0227581 0.0159006 0 -0.0135715 -0.0206585 0.024954 0.0148125 0.028567 -0.0217994
internal_weight=0 718.981 3089.61 858.159 2231.45 749.512 426.292 171.993 158.595 2132.55 254.299 323.221 688.056
internal_count=10107 2903 7204 2405 4799 1986 1211 548 502 4585 663 775 2823
is_linear=0
shrinkage=0.1517


Tree=22
num_leaves=13
num_cat=0
split_feature=1 3 1 3 1 3 3 1 3 1 3 3
split_gain=26.2546 6.014 5.29155 7.99086 4.82907 4.54166 2.07303 1.80364 0.834874 0.453101 0.23554 0.054699
threshold=427.59500000000008 91.370000000000019 75.835000000000008 11.770000000000001 361.95500000000004 -7.9849999999999994 71.975000000000009 95.015000000000015 204.54000000000005 324.72000000000008 -51.264999999999993 -64.964999999999989
decision_type=2 2 2 2 2 2 2 2 2 2 2 2
left_child=2 10 6 4 5 -4 11 -5 9 -9 -2 -1
right_child=1 -3 3 7 -6 -7 -8 8 -10 -11 -12 -13
leaf_value=0 0 0 0 0 0.009969059901447818 -0.019243514679804178 0 0.017780733918868662 0 0 -0.019664166024214447 0.026466825350764372
leaf_weight=12.50890791416168 30.466931089758873 30.924828514456749 90.496705532073975 205.43109172582626 83.577856570482254 455.20507097244263 17.025224432349205 977.29085597395897 9.823115333914755 126.1427197009325 651.16224341094494 1103.8369396328926
leaf_count=29 128 80 258 429 281 1456 38 2163 23 373 2695 2154
internal_value=0 -0.0133378 0.0153929 0.00649185 -0.00220572 -0.0123768 0.0253684 0.0137488 0.0159936 0.016553 -0.0190889 0.0263094
internal_weight=0 712.554 3081.34 1947.97 629.28 545.702 1133.37 1318.69 1113.26 1103.43 681.629 1116.35
internal_count=10107 2903 7204 4983 1995 1714 2221 2988 2559 2536 2823 2183
is_linear=0
shrinkage=0.1517


Tree=23
num_leaves=23
num_cat=0
split_feature=1 1 3 3 3 3 3 3 3 1 3 1 3 1 3 3 1 3 1 3 3 3
split_gain=21.9796 5.03148 8.66493 4.19567 1.73517 0.734673 0.687521 0.532727 3.45489 5.47448 4.47887 2.96763 3.03329 1.20096 1.05198 0.335511 0.112073 0.346361 0.0867278 0.236315 0.104243 0.00350972
threshold=727.11500000000012 75.835000000000008 107.99000000000002 -47.989999999999988 71.975000000000009 98.040000000000006 204.54000000000005 70.00500000000001 11.985000000000001 247.42500000000004 7.6900000000000004 193.93000000000004 1.8350000000000002 667.8900000000001 9.9450000000000021 -7.9849999999999994 92.245000000000019 6.8150000000000004 484.02000000000004 75.685000000000016 95.055000000000021 -64.964999999999989
decision_type=2 2 2 2 2 2 2 2 2 2 2 2 2 2 2 2 2 2 2 2 2 2
left_child=1 4 7 -2 21 -5 -4 8 10 -10 11 15 -13 14 -12 -3 -17 -18 19 -9 -21 -1
right_child=3 2 6 5 -6 -7 -8 18 9 -11 13 12 -14 -15 -16 16 17 -19 -20 20 -22 -23
leaf_value=0 0 0 0.030954539005681389 -0.029136838772560299 0 0 0 0 0.018426185849276772 0 -0.026541690267030606 0 0.01952373454676036 0 0 0 -0.010176259338145942 0 0 -0.0061696602972384235 0 0.022917741856940826
leaf_weight=12.50890791416168 21.702364906668663 41.881267622113228 197.93072557449341 285.40074639767408 17.025224432349205 7.3072664588689795 11.480305358767508 42.643014147877693 544.64406731724739 327.16849225759506 128.88785798847675 173.79633124172688 270.60027529299259 9.5972602814435941 96.927405774593353 29.771217837929726 101.36131615936756 14.949725255370138 18.302326694130898 223.34137718379498 104.41814947128296 1096.0142131149769
leaf_count=29 81 107 360 1274 38 27 25 111 1179 1025 563 668 901 37 264 76 325 39 66 533 225 2154
internal_value=0 0.0121875 0.00499881 -0.0225277 0.0218985 -0.0280815 0.029472 0 0.00235715 0.00964607 -0.000432367 0.00111587 0.0112511 -0.0177349 -0.0202879 -0.00235813 -0.00626517 -0.00757744 -0.00209156 -0.00298053 -0.00477579 0.0227964
internal_weight=0 3463.25 2337.7 314.41 1125.55 292.708 209.411 2128.29 1739.59 871.813 867.773 632.36 444.397 235.413 225.815 187.964 146.082 116.311 388.705 370.403 327.76 1108.52
internal_count=10107 8725 6504 1382 2221 1301 385 6119 5184 2204 2980 2116 1569 864 827 547 440 364 935 869 758 2183
is_linear=0
shrinkage=0.1517


Tree=24
num_leaves=24
num_cat=0
split_feature=1 3 3 3 3 3 3 1 1 1 3 1 3 1 3 3 1 1 3 3 3 3 3
split_gain=16.7136 4.52493 7.39657 15.6772 7.52569 5.77805 3.64165 3.23852 2.56641 2.14946 1.92896 2.03833 1.56684 1.13094 1.02588 3.04623 0.863555 0.650959 0.631921 0.109915 0.0919024 0.0045592 1.21057
threshold=727.11500000000012 19.095000000000002 7.6900000000000004 8.0050000000000008 14.270000000000001 3.8850000000000002 -47.989999999999988 324.72000000000008 196.30000000000004 438.96500000000009 -6.294999999999999 529.50000000000011 -58.809999999999995 12.515000000000002 71.975000000000009 107.99000000000002 32.505000000000003 5.2300000000000004 98.040000000000006 18.030000000000005 158.38000000000002 91.370000000000019 21.780000000000005
decision_type=2 2 2 2 2 2 2 2 2 2 2 2 2 2 2 2 2 2 2 2 2 2 2
left_child=1 2 5 -4 9 10 -2 14 19 13 12 16 -1 -5 -3 -16 -12 -7 -8 -6 -17 22 -9
right_child=6 7 3 4 8 17 18 21 -10 -11 11 -13 -14 -15 15 20 -18 -19 -20 -21 -22 -23 -24
leaf_value=0 0 0.02268760154281764 -0.044553136653520072 0 -0.025702868113101251 0 -0.026072677387759532 0 0 0 0 0 0.014690892109534726 0.021459033775162166 0 0.018811352302776817 -0.017044423618838182 0.024440768306370257 0 0 0 0 -0.010666974014255811
leaf_weight=41.559670582413673 21.702364906668663 1053.5767145454884 109.28880593180656 44.659682631492615 92.169373527169228 11.914114922285078 281.46857436001301 19.467538803815842 74.947035863995552 49.335221737623215 58.43339766561985 41.334645345807076 202.62606570124626 322.43314860761166 354.03823587298393 114.44785825908184 199.39897404611111 388.67874708771706 7.3072664588689795 16.151053622364998 64.356027767062187 40.17549467086792 155.75964023172855
leaf_count=141 81 2147 480 91 249 25 1274 49 214 194 129 171 547 742 790 196 718 1020 27 36 127 92 567
internal_value=0 0.0104766 0.00121641 -0.00660023 0 0.0115524 -0.0196206 0.016104 -0.0146635 0.0150318 0 -0.00666608 0.00900477 0.0189357 0.0183608 0.00045653 -0.0135858 0.0235013 -0.0250655 -0.0243738 0.0161641 0 -0.000628957
internal_weight=0 3454.75 1652.93 708.984 599.696 943.946 310.478 1801.82 183.267 416.428 543.353 299.167 244.186 367.093 1586.42 532.842 257.832 400.593 288.776 108.32 178.804 215.403 175.227
internal_count=10107 8725 4757 2006 1526 2751 1382 3968 499 1027 1706 1018 688 833 3260 1113 847 1045 1301 285 323 708 616
is_linear=0
shrinkage=0.1517


Tree=25
num_leaves=21
num_cat=0
split_feature=2 15 2 2 15 15 2 2 2 2 15 2 15 15 2 15 2 2 15 2
split_gain=12.2595 6.22149 5.44726 5.5621 5.39931 5.07647 2.47767 2.34109 1.28055 0.994902 1.02012 2.09544 0.889647 0.904435 0.310209 0.10335 0.0750355 0.0505787 0.00684353 0.100076
threshold=101.00861111111112 1.9045454545454548 72.532500000000013 48.524375000000013 6.8750000000000009 6.416666666666667 7.9850000000000012 86.802500000000023 18.998888888888896 94.265000000000015 2.5227272727272729 5.7645833333333343 3.1339285714285716 6.1250000000000009 45.11825000000001 2.9500000000000006 200.80000000000004 98.398333333333355 2.3875000000000006 41.440559440559447
decision_type=2 2 2 2 2 2 2 2 2 2 2 2 2 2 2 2 2 2 2 2
left_child=1 2 3 6 9 16 -1 -6 -8 10 18 -12 15 -14 -10 -13 -2 -4 -3 -20
right_child=5 4 17 -5 7 -7 8 -9 14 -11 11 12 13 -15 -16 -17 -18 -19 19 -21
leaf_value=0.015714427172340718 0.033468095983412972 -0.00070652095952047878 -0.0019795107151352118 0.02466279961689927 0.014226771718545557 0 -0.010123694469847146 0 0.0031328347491336494 0 0 -0.0033712667251288523 -0.021012363598419424 0 0 0 0 0 0 0.0040283443310931361
leaf_weight=141.37020133435726 366.95160602033138 225.5013911575079 304.10681229829788 499.63637915998697 223.15326309204102 28.711990237236023 197.5334378182888 24.916307270526886 637.36184746026993 53.961628966033459 19.386536210775375 119.26456677913666 565.58546219021082 59.308036968111992 74.838086932897568 81.251179605722427 14.984795346856115 42.551689073443413 22.594799861311913 51.922045141458511
leaf_count=244 818 816 780 1257 485 87 460 78 1685 170 40 462 1753 154 238 231 31 87 75 156
internal_value=0 0.000647635 0.00729586 0.0118595 -0.0050263 0.0280277 0.000320065 0.00530304 0 -0.0109161 -0.0119545 -0.014625 -0.0164651 -0.019385 0 0 0.0328769 -0.000933277 0 0
internal_weight=0 3344.24 1897.4 1550.74 1446.85 410.648 1051.1 248.07 909.733 1198.78 1144.81 844.796 825.409 624.893 712.2 200.516 381.936 346.659 300.018 74.5168
internal_count=10107 9171 4751 3884 4420 936 2627 563 2383 3857 3687 2640 2600 1907 1923 693 849 867 1047 231
is_linear=0
shrinkage=0.1517


Tree=26
num_leaves=15
num_cat=0
split_feature=1 15 1 15 15 1 1 1 15 1 15 15 15 1
split_gain=13.2256 9.21741 6.9425 2.78683 3.04786 2.1659 1.22992 0.84509 0.85343 0.818176 1.75683 0.674734 0.126633 0.020404
threshold=727.11500000000012 2.5227272727272729 167.87000000000003 0.78192934782608703 2.8452380952380958 16.805000000000003 7.9850000000000012 688.06000000000006 7.416666666666667 81.285000000000011 8.1666666666666696 3.183333333333334 1.531372549019608 132.18500000000003
decision_type=2 2 2 2 2 2 2 2 2 2 2 2 2 2
left_child=1 5 9 -2 12 6 -1 8 -4 10 11 -3 -5 -11
right_child=3 2 7 4 -6 -7 -8 -9 -10 13 -12 -13 -14 -15
leaf_value=0.0087545476237494962 0 0 -0.014363363379326047 0 0 0.015932781921791442 -0.0073745397219284964 0 0 0 0 0.022334712904077791 -0.039881896187298517 0.0014133432257716154
leaf_weight=123.81826275587082 61.810355946421623 22.260869786143303 595.72369513660669 145.53006827831268 20.567455872893333 1951.2086713016033 129.11927463114262 8.8815139532089216 67.235882580280304 189.96577699482441 33.1989965736866 174.9585293084383 80.793357290327549 145.06708228588104
leaf_count=218 244 58 2006 601 81 4633 296 30 171 505 82 374 456 352
internal_value=0 0.00851762 0 -0.018365 -0.02428 0.0142877 0 -0.0115925 -0.0127201 0.0093569 0.0154227 0.0201523 -0.0291477 0
internal_weight=0 3441.44 1237.29 308.701 246.891 2204.15 252.938 671.841 662.96 565.451 230.418 197.219 226.323 335.033
internal_count=10107 8725 3578 1382 1138 5147 514 2207 2177 1371 514 432 1057 857
is_linear=0
shrinkage=0.1517


Tree=27
num_leaves=21
num_cat=0
split_feature=16 3 3 16 16 3 3 3 3 16 16 16 16 3 3 3 16 16 3 16
split_gain=14.2139 4.38806 5.41695 2.32047 2.22085 1.19434 2.11273 1.44013 0.410677 1.41417 1.12325 0.749385 2.95386 4.48258 0.366541 0.578753 0.137375 0.592121 0.123844 0.0210082
threshold=5.5000000000000009 8.0050000000000008 -7.9849999999999994 9.5000000000000018 18.500000000000004 66.00500000000001 95.055000000000021 2.9950000000000006 14.270000000000001 16.500000000000004 8.5000000000000018 17.500000000000004 7.5000000000000009 107.99000000000002 24.005000000000006 85.015000000000015 12.500000000000002 15.500000000000002 204.54000000000005 6.5000000000000009
decision_type=2 2 2 2 2 2 2 2 2 2 2 2 2 2 2 2 2 2 2 2
left_child=5 2 16 19 -5 7 -7 -1 9 10 -3 12 -10 -14 -13 -16 -2 -18 -8 -4
right_child=1 8 3 4 -6 6 18 -9 11 -11 -12 14 13 -15 15 -17 17 -19 -20 -21
leaf_value=0 0 0 -0.0016373732135905954 -0.035512276562489883 0 -0.0043433080508585515 0.01155081946674727 0.017487628616283269 0 0 0.01761139948506454 0 -0.018797653864970738 0 0.010812586820172856 0 0.011872420647359621 0 0 0
leaf_weight=237.58733621239662 119.59661309421062 102.01522533595562 90.328799538314342 197.60051842033863 43.242275476455688 227.73617933690548 250.84571206569672 1254.073505744338 197.99932962656021 25.596677482128143 128.73859615623951 22.697192803025246 443.1214960962534 22.649164840579033 96.071130484342575 15.325192138552664 29.100924432277679 13.611082121729849 11.21519088745117 212.6464855670929
leaf_count=707 441 323 378 802 127 506 469 2706 583 82 341 64 1364 50 199 44 63 46 24 788
internal_value=0 -0.00419413 -0.0129509 -0.0201831 -0.0306889 0.0130063 0 0.0154572 0 0.00522369 0.0114423 0 -0.0047832 -0.0123831 0 0.00647174 0 0.00488072 0.0110035 0
internal_weight=0 1760.34 706.127 543.818 240.843 1981.46 489.797 1491.66 1054.21 256.35 230.754 797.864 663.77 465.771 134.094 111.396 162.309 42.712 262.061 302.975
internal_count=10107 5695 2645 2095 929 4412 999 3413 3050 746 664 2304 1997 1414 307 243 550 109 493 1166
is_linear=0
shrinkage=0.1517


Tree=28
num_leaves=20
num_cat=0
split_feature=3 3 3 3 3 3 15 15 15 3 3 3 3 3 3 3 15 15 15
split_gain=4.63049 3.59335 2.83808 14.8691 4.277 4.63306 2.63741 0.783437 0.638336 0.471218 4.00034 0.312021 0.290655 0.272642 0.211515 0.0599938 0.0245359 0.0133402 0.00719959
threshold=18.030000000000005 14.270000000000001 8.0050000000000008 7.6900000000000004 3.8850000000000002 -6.294999999999999 5.5500000000000007 8.5833333333333339 8.5833333333333339 46.945000000000007 95.055000000000021 9.9450000000000021 -73.499999999999986 17.955000000000002 204.54000000000005 66.00500000000001 5.7083333333333348 12.750000000000002 7.8333333333333348
decision_type=2 2 2 2 2 2 2 2 2 2 2 2 2 2 2 2 2 2 2
left_child=1 2 3 4 5 12 9 16 11 -2 15 -4 -1 -3 -12 -11 -8 -9 -7
right_child=6 13 8 -5 -6 18 7 17 -10 10 14 -13 -14 -15 -16 -17 -18 -19 -20
leaf_value=0 0.016679316907506028 -0.019168836394603938 0 -0.040208439729649166 0.013801079548949716 -0.015066030085163072 0 0.0017153057183628387 0 0 0.016271828572122324 0.014409243467789351 0.0063659863820474671 0 0 -0.0018817327048507118 -0.0089632203566323617 0 0
leaf_weight=34.005322650074959 698.6206990480423 151.98617258667946 117.7792751789093 118.27537548542023 459.34059096872807 345.03132376074791 10.37181733548641 84.596387714147568 7.7959737926721564 324.7965794801712 282.09280332922935 326.09917230904102 275.75222191214561 15.809272348880766 11.21519088745117 309.20749288797379 138.86765533685684 11.41102474927902 9.4691021144390088
leaf_count=125 1591 445 367 545 1303 1282 30 170 22 785 554 777 837 39 24 772 388 27 24
internal_value=0 0 0.000169628 -0.000794622 0.00227842 -0.000351871 0.00873041 0 0.0109141 0.0110673 0.00126418 0.0121808 0.00451068 -0.0179045 0.0156309 -0.000213266 -0.00863112 0.00105419 -0.0148922
internal_weight=0 1861.34 1693.55 1241.87 1123.6 664.258 1871.18 245.247 451.674 1625.93 927.312 443.878 309.758 167.795 293.308 634.004 149.239 96.0074 354.5
internal_count=10107 5766 5282 4116 3571 2268 4341 615 1166 3726 2135 1144 962 484 578 1557 418 197 1306
is_linear=0
shrinkage=0.1517


Tree=29
num_leaves=18
num_cat=0
split_feature=16 15 15 15 16 15 15 15 16 15 15 15 15 15 15 15 15
split_gain=9.52865 6.3068 5.15385 3.76676 2.63221 6.23223 4.30878 2.53594 1.82719 1.64205 1.08395 1.02474 0.853717 2.12118 0.77936 0.0435674 0.141156
threshold=5.5000000000000009 2.8452380952380958 1.0690476190476192 2.5634920634920637 11.500000000000002 6.1250000000000009 3.535714285714286 1.9045454545454548 13.500000000000002 0.59474734042553201 2.9500000000000006 2.8944444444444448 4.4500000000000011 5.5500000000000007 11.250000000000002 1.4868421052631582 0.88117647058823534
decision_type=2 2 2 2 2 2 2 2 2 2 2 2 2 2 2 2 2
left_child=2 7 9 -4 6 11 10 15 -7 -1 -3 -6 -8 -14 -10 16 -2
right_child=1 4 3 -5 5 8 12 -9 14 -11 -12 -13 13 -15 -16 -17 -18
leaf_value=0.0057165571085958074 0 0 0.029637959097700464 0 0 0 -0.00870454283462096 -0.023670791008706647 0.013252227136519322 0 0.023999266196085615 -0.021828522042597408 0.014809639834926039 0 0 0 -0.0044006410906150964
leaf_weight=1388.8839488625526 27.505326598882675 14.515223585069178 389.31857275217772 16.000503376126289 5.6628652662038794 35.531433627009392 136.44650007784367 313.27950391918421 267.25014226138592 177.20153914391994 224.58939307183027 262.02021076530218 143.91444373130798 20.018087014555931 29.520995229482651 146.52938391268253 129.51377856731415
leaf_count=2789 114 63 1023 58 18 108 448 1271 611 542 608 901 335 72 72 559 515
internal_value=0 -0.00348806 0.0104773 0.0259813 0 -0.00224731 0.00952331 -0.0153986 0.00255485 0.00252279 0.0217891 -0.0200751 0 0.0031307 0.0107631 0 -0.00201466
internal_weight=0 1756.3 1971.4 405.319 1139.47 599.986 539.484 616.828 332.303 1566.09 239.105 267.683 300.379 163.933 296.771 303.548 157.019
internal_count=10107 5695 4412 1081 3236 1710 1526 2459 791 3331 671 919 855 407 683 1188 629
is_linear=0
shrinkage=0.1517


Tree=30
num_leaves=19
num_cat=0
split_feature=1 15 1 1 15 15 1 1 15 1 1 1 15 15 1 15 15 1
split_gain=9.63075 3.65632 4.61696 4.00299 2.52002 2.9595 1.65673 1.09762 2.03365 1.03911 0.665003 0.591373 1.57771 0.568292 0.531721 0.524273 0.224047 0.021311
threshold=727.11500000000012 2.5227272727272729 167.87000000000003 187.33000000000001 0.78192934782608703 2.8452380952380958 66.265000000000029 16.805000000000003 1.0000000180025095e-35 7.9850000000000012 688.06000000000006 81.285000000000011 8.1666666666666696 3.183333333333334 45.215000000000011 7.416666666666667 2.477272727272728 132.18500000000003
decision_type=2 2 2 2 2 2 2 2 2 2 2 2 2 2 2 2 2 2
left_child=1 3 11 6 -2 -6 7 9 14 -1 15 12 13 -3 -9 -4 -8 -13
right_child=4 2 10 -5 5 -7 16 8 -10 -11 -12 17 -14 -15 -16 -17 -18 -19
leaf_value=0.0062829410357653354 0 0 -0.011356722529007603 0.0191053598005788 -0.028345026763873665 0 -0.0026160399858962242 0.018359427590062097 0 -0.0084272411166569049 0 0 0 0.020276699059419756 0 0 0 0.0014453303196069896
leaf_weight=122.59155568480492 61.951549977064133 22.206582397222519 590.71685107052326 697.10134161263704 224.72364196181297 20.52333215624094 663.39148353040218 277.80143041908741 73.257840976119041 128.54499799013138 8.8262567073106748 189.58229179680347 33.157087996602058 174.67009009420872 202.27058094739914 67.206132620573044 19.556707665324211 144.76914668083191
leaf_count=218 244 58 2006 2095 1057 81 1434 497 170 296 30 505 82 374 400 171 37 352
internal_value=0 0.00566724 0 0.0093003 -0.0178645 -0.0234756 0.00099202 0.00666032 0.0100469 0 -0.00893592 0.00836804 0.0136274 0.0182683 0.0140002 -0.0100625 0 0
internal_weight=0 3415.65 1231.13 2184.52 307.199 245.247 1487.41 804.466 553.33 251.137 666.749 564.385 230.034 196.877 480.072 657.923 682.948 334.351
internal_count=10107 8725 3578 5147 1382 1138 3052 1581 1067 514 2207 1371 514 432 897 2177 1471 857
is_linear=0
shrinkage=0.1517


Tree=31
num_leaves=19
num_cat=0
split_feature=3 3 3 3 3 3 3 3 3 15 15 15 15 3 3 3 15 15
split_gain=3.5466 1.08434 0.627824 2.90779 2.99301 2.12266 12.4844 2.61381 3.88838 0.977363 0.592245 0.551278 0.307468 0.261191 0.213492 0.197429 0.0895524 0.080097
threshold=107.99000000000002 178.26500000000001 70.955000000000013 18.030000000000005 14.270000000000001 8.0050000000000008 7.9850000000000012 3.8850000000000002 -6.294999999999999 5.5500000000000007 0.8377192982456142 8.5833333333333339 1.8619047619047622 9.9450000000000021 -73.499999999999986 17.955000000000002 10.250000000000002 7.5833333333333348
decision_type=2 2 2 2 2 2 2 2 2 2 2 2 2 2 2 2 2 2
left_child=2 -2 3 4 5 6 7 8 14 -5 -9 13 -12 -7 -1 -6 -4 -11
right_child=1 -3 16 9 15 11 -8 10 -10 17 12 -13 -14 -15 -16 -17 -18 -19
leaf_value=0 0.02199463292369791 0 -0.0048028298913865668 0.0089875320290975225 -0.017511901583415566 0 -0.038846636050734323 0.018474436979883876 -0.013898216276536734 -0.0032836861000095502 0 0 0.0047359817839293392 0.012486486460782657 0.0049530604491963741 0 0 0
leaf_weight=33.971672594547272 157.99167184531689 48.466746136546135 406.09541946649551 1070.9855069518089 151.6818905621767 117.59742964804173 101.71453438699245 128.01153852045536 352.98790761828423 80.94809627532959 120.94094543159008 7.7993434071540824 225.46471408009529 325.39983086287975 275.80694621801376 15.780128479003904 10.753063499927519 86.31923308968544
leaf_count=125 298 103 1002 2511 445 367 486 258 1306 231 433 22 671 777 837 39 24 172
internal_value=0 0.0179026 0 0.00126102 -0.000597226 0 -0.00144629 0.000794083 -0.000440431 0.00732599 0.0103771 0.00922967 0 0.0104993 0.00318726 -0.0164385 -0.00430253 0
internal_weight=0 206.458 3512.26 3095.41 1857.16 1689.69 1238.9 1137.18 662.767 1238.25 474.417 450.797 346.406 442.997 309.779 167.462 416.848 167.267
internal_count=10107 401 9706 8680 5766 5282 4116 3630 2268 2914 1362 1166 1104 1144 962 484 1026 403
is_linear=0
shrinkage=0.1517


Tree=32
num_leaves=23
num_cat=0
split_feature=2 2 2 2 15 15 15 15 15 2 15 2 2 15 15 2 2 2 15 15 15 15
split_gain=8.4885 2.3966 6.81538 3.34543 2.68487 1.93198 1.94917 1.86857 1.6902 1.64539 2.51086 1.26548 1.24144 9.04955 5.27489 1.04491 0.895574 0.876926 0.864043 0.728598 0.61055 0.139799
threshold=119.2 7.9850000000000012 32.875000000000007 75.010000000000019 0.18333333333333338 3.6458333333333335 2.7321428571428577 6.8750000000000009 6.291666666666667 42.021944444444451 3.1180555555555558 79.475000000000009 35.151250000000012 0.67054263565891481 5.2250000000000005 99.581250000000026 36.545000000000009 35.938000000000009 1.3169856459330147 7.416666666666667 0.33105022831050229 3.3875000000000006
decision_type=2 2 2 2 2 2 2 2 2 2 2 2 2 2 2 2 2 2 2 2 2 2
left_child=1 -1 4 9 -3 6 15 20 -6 12 -11 -8 18 16 17 -5 -14 -15 -4 -7 -2 -12
right_child=7 2 3 5 8 19 11 -9 -10 10 21 -13 13 14 -16 -17 -18 -19 -20 -21 -22 -23
leaf_value=0.012623592193684974 0 0 0 -0.0085297398516374322 -0.022055470547862062 -0.018619502033607085 0 0 0 0.012566142003676865 -0.0051969062025531082 0.019714968299224294 0 0 0 0 0.010990604426389338 -0.040523457938911087 0.013795262758124236 0 0.037666953879745134 0
leaf_weight=190.96709606051445 136.53993083536625 297.52894136309624 44.353633493185043 361.4960537776351 458.168148458004 139.25232070684433 11.037352077662943 12.721262365579603 58.761924937367439 895.60803876072168 29.12021978199482 77.683580577373505 12.919524818658827 17.789503365755081 32.792555347084999 129.4751121327281 96.699634566903114 133.20853923261166 66.566531211137772 60.042799055576324 94.327802509069443 356.6944317817688
leaf_count=364 265 604 118 1023 1418 483 45 39 140 2579 128 225 36 60 73 300 175 537 162 149 214 970
internal_value=0 0 -0.00175516 0.000699716 -0.0135463 -0.00458285 0 0.0247578 -0.0193716 0.0058122 0.00844699 0.0142031 0 -0.00697574 -0.0286651 -0.00389257 0.00311933 -0.0379104 0.00702372 -0.0147232 0.0277716 0
internal_weight=0 3470.17 3279.2 2464.74 814.459 778.987 579.692 243.589 516.93 1685.75 1281.42 88.7209 404.33 293.41 183.791 490.971 109.619 150.998 110.92 199.295 230.868 385.815
internal_count=10107 9589 9225 7063 2162 2225 1593 518 1558 4838 3677 270 1161 881 670 1323 211 597 280 632 479 1098
is_linear=0
shrinkage=0.1517


Tree=33
num_leaves=26
num_cat=0
split_feature=4 3 4 4 3 3 4 3 4 4 4 3 3 3 3 4 4 4 3 3 4 4 3 3 3
split_gain=6.86998 7.25005 6.42027 5.93759 5.54563 3.89295 1.93584 1.85869 4.14166 0.725625 0.673092 1.04564 0.806203 0.671597 0.539216 0.727159 0.155608 0.12355 1.25464 0.287522 0.0453519 0.271583 0.0442355 7.78405e-06 0.168572
threshold=176.33500000000001 2.4650000000000003 46.005000000000003 217.04000000000005 178.26500000000001 110.98 22.985000000000003 -7.9849999999999994 85.015000000000015 141.06500000000003 69.170000000000016 77.990000000000023 20.420000000000005 158.38000000000002 4.2950000000000008 83.190000000000012 212.92000000000004 13.775000000000002 7.9850000000000012 15.955000000000002 105.00500000000001 151.52000000000004 107.99000000000002 34.965000000000011 58.010000000000012
decision_type=2 2 2 2 2 2 2 2 2 2 2 2 2 2 2 2 2 2 2 2 2 2 2 2 2
left_child=2 16 6 4 -3 7 17 20 10 -7 12 14 -9 -11 -12 -16 -2 18 -1 -19 -4 -22 -10 -14 -25
right_child=1 3 5 -5 -6 9 -8 8 22 13 11 -13 23 -15 15 -17 -18 19 -20 -21 21 -23 -24 24 -26
leaf_value=0.010993434682574511 -0.004546591310401308 0.037168119854010633 0 0 0 0 0.0147521855895192 -0.011241440789985253 -0.015368210380605429 0.01671687008229988 0 0 3.5475692205329089e-05 0 0.012995508323367776 0 0 -0.0063995842707660084 0 0 0.0068401670104214765 0 0 -0.0037744794683444963 0
leaf_weight=166.39598149061203 83.233746811747551 343.30042466521263 65.282044470310211 27.385607272386551 41.567144826054573 57.593978136777878 473.09881830215454 148.27912367880344 1147.0951438471675 47.478175535798073 32.071289077401161 63.972813174128532 52.336085930466652 18.8323625177145 248.32617284357548 29.227020606398582 26.353578090667725 89.366747245192528 99.215176001191139 64.127961471676826 65.886470302939415 33.014912694692612 11.131894782185553 182.29624435305595 93.87176625430584
leaf_count=311 370 1033 218 106 93 126 980 460 3658 70 107 146 96 40 579 89 100 233 219 126 193 124 25 419 186
internal_value=0 0.0165451 0 0.0258004 0.0314927 -0.00540608 0.00891119 -0.00822491 -0.00966042 0.00541177 0 0.00291213 -0.00451583 0.0121206 0.00836973 0.0104846 0 0 0.0024382 -0.00173052 0 0.00235053 -0.0152729 0 0
internal_weight=0 521.841 3188.9 412.253 384.868 2296.7 892.205 2172.79 2008.61 123.905 850.381 373.597 476.783 66.3105 309.624 277.553 109.587 419.106 265.611 153.495 164.183 98.9014 1158.23 328.504 276.168
internal_count=10107 1702 8405 1232 1126 6536 1869 6300 5765 236 2082 921 1161 110 775 668 470 889 530 359 535 317 3683 701 605
is_linear=0
shrinkage=0.1517


Tree=34
num_leaves=15
num_cat=0
split_feature=1 3 3 3 1 3 3 3 3 3 3 1 3 1
split_gain=8.07089 4.36519 1.24451 11.0928 2.7719 2.22509 2.11678 2.27784 0.405613 0.548285 0.338145 0.197346 0.179978 0.101644
threshold=427.59500000000008 76.665000000000006 8.0050000000000008 7.410000000000001 16.805000000000003 75.685000000000016 3.8850000000000002 1.1050000000000002 3.3350000000000004 1.1050000000000002 107.99000000000002 6.995000000000001 178.26500000000001 756.61000000000013
decision_type=2 2 2 2 2 2 2 2 2 2 2 2 2 2
left_child=2 8 3 6 -4 -6 7 -1 9 -2 -7 -8 -12 -3
right_child=1 13 4 -5 5 10 11 -9 -10 -11 12 -13 -14 -15
leaf_value=0.0085921166378045283 -0.0071184048301540454 0.0043044271027003851 0 -0.032053672280490164 0.01228314257253834 -0.002118685912336857 0 -0.01025755261099646 -0.019463028226000406 0.00058958149793515789 0.006644038767188277 0.016974999348660424 0 0
leaf_weight=252.36593617498875 157.95487521588802 36.247399777173996 97.326876670122147 103.0962755009532 1559.6666162461042 325.14750437438488 27.119004413485527 167.98645290732384 430.97515065222979 63.444959387183189 137.89421515166759 292.22484755516052 45.472576156258583 11.913932129740713
leaf_count=663 704 89 214 419 3489 745 54 548 1794 257 256 721 95 59
internal_value=0 -0.0105243 0.00582867 0 0.0077049 0.00957077 0.00828007 0 -0.0159142 0 0 0.0160613 0.00465287 0
internal_weight=0 700.536 3008.3 842.793 2165.51 2068.18 739.696 420.352 652.375 221.4 508.514 319.344 183.367 48.1613
internal_count=10107 2903 7204 2405 4799 4585 1986 1211 2755 961 1096 775 351 148
is_linear=0
shrinkage=0.1517


Tree=35
num_leaves=19
num_cat=0
split_feature=1 1 15 15 15 15 15 1 15 1 15 1 1 1 1 15 1 15
split_gain=6.34249 2.31014 3.03415 7.1247 2.05093 2.40392 1.69443 1.57875 1.14472 0.553777 0.369485 0.226869 0.198836 0.129925 0.531958 0.046972 0.000811197 9.14296e-05
threshold=727.11500000000012 46.770000000000003 2.6125000000000003 1.0571895424836604 0.78192934782608703 2.8452380952380958 9.4166666666666696 657.8900000000001 9.1666666666666696 688.06000000000006 1.531372549019608 79.170000000000016 193.93000000000004 16.805000000000003 7.9850000000000012 0.59474734042553201 173.80500000000004 2.5227272727272729
decision_type=2 2 2 2 2 2 2 2 2 2 2 2 2 2 2 2 2 2
left_child=1 8 3 12 -2 10 9 17 13 11 -6 -4 -3 14 -1 -14 -8 -5
right_child=4 2 6 7 5 -7 16 -9 -10 -11 -12 -13 15 -15 -16 -17 -18 -19
leaf_value=0.0073812433671876206 0 -0.0023381524148838517 0 0.019077625869401794 0 0 0.00034539198888437165 0 0 0 -0.034969531965511134 -0.0087172118937879992 0.0022749989273698409 0.016662856725427097 0 0 0 0
leaf_weight=134.69300249218941 61.888877779245377 746.98979713022709 86.076813548803329 600.95252297818661 143.77534514665604 20.726251065731049 66.485119462013245 47.871803291141987 11.929330900311468 8.5551782846450788 76.97371881455183 904.93636973202229 118.85628253221512 407.83206227421761 146.23033885657787 80.317972898483276 16.791501745581627 19.20556915551424
leaf_count=245 244 1548 211 1808 601 81 126 191 34 28 456 2823 227 798 327 237 49 73
internal_value=0 0.00399742 4.01847e-05 0.00548027 -0.0153897 -0.0205779 -0.00398727 0.0168469 0.0117353 -0.00727336 -0.0250942 -0.00806904 0 0.0131778 0 0 0 0.0188178
internal_weight=0 3397.72 2697.04 1614.19 303.364 241.475 1082.84 668.03 700.685 999.568 220.749 991.013 946.164 688.755 280.923 199.174 83.2766 620.158
internal_count=10107 8725 7321 4084 1382 1138 3237 2072 1404 3062 1057 3034 2012 1370 572 464 175 1881
is_linear=0
shrinkage=0.1517


Tree=36
num_leaves=17
num_cat=0
split_feature=4 3 4 3 4 3 3 4 3 3 4 3 4 3 3 4
split_gain=5.37494 5.85909 5.09296 4.77345 3.85001 3.44329 1.48124 1.30462 1.06045 1.10958 0.648046 0.625905 0.119201 0.867089 0.269264 0.116303
threshold=176.33500000000001 2.4650000000000003 217.04000000000005 178.26500000000001 46.005000000000003 110.98 -7.9849999999999994 22.985000000000003 8.0050000000000008 14.270000000000001 141.06500000000003 158.38000000000002 13.775000000000002 7.9850000000000012 15.955000000000002 212.92000000000004
decision_type=2 2 2 2 2 2 2 2 2 2 2 2 2 2 2 2
left_child=4 15 3 -3 7 6 -6 12 -8 -10 -7 -12 13 -1 -14 -2
right_child=1 2 -4 -5 5 10 8 -9 9 -11 11 -13 14 -15 -16 -17
leaf_value=0.0089291416878813108 -0.0039351102118863049 0.033430589573720616 0 0 0 0 -0.018155857493442472 0.010387748251525318 0 -0.0050922183959510262 0.015660574468829444 0 -0.0068968250573699201 0 0 0
leaf_weight=165.44739697873592 82.842323422431946 344.65158892422915 27.209020733833313 41.564553052186966 164.54278245568275 57.491568118333817 462.49304408580065 468.16518485546112 228.60725652426481 1311.0647608041763 47.242426514625549 18.797456979751587 89.270576760172844 99.236242204904556 63.450521394610405 26.24817281961441
leaf_count=311 370 1033 106 93 535 126 1791 980 650 3324 70 40 233 219 126 100
internal_value=0 0.0142213 0.0226695 0.028096 -0.000589098 -0.00500089 -0.00771797 0.00556438 -0.00897468 -0.00257384 0.0045093 0.0111086 0 0.00107842 -0.00309876 0
internal_weight=0 522.516 413.425 386.216 3175.81 2290.24 2166.71 885.57 2002.17 1539.67 123.531 66.0399 417.405 264.684 152.721 109.09
internal_count=10107 1702 1232 1126 8405 6536 6300 1869 5765 3974 236 110 889 530 359 470
is_linear=0
shrinkage=0.1517


Tree=37
num_leaves=24
num_cat=0
split_feature=4 3 4 3 4 3 3 4 4 4 3 4 3 3 3 4 3 4 4 3 3 4 4
split_gain=3.43306 4.53967 4.25315 3.95456 2.65405 2.8313 1.24151 2.20397 1.07043 0.585384 0.582859 0.529352 0.783101 0.67543 0.401341 0.5944 0.121186 0.100105 0.0807345 0.717907 0.238845 0.021164 0.212991
threshold=176.33500000000001 2.4650000000000003 217.04000000000005 178.26500000000001 46.005000000000003 110.98 -7.9849999999999994 85.015000000000015 22.985000000000003 141.06500000000003 158.38000000000002 69.170000000000016 77.990000000000023 58.010000000000012 4.2950000000000008 83.190000000000012 89.160000000000011 212.92000000000004 13.775000000000002 7.9850000000000012 15.955000000000002 105.00500000000001 151.52000000000004
decision_type=2 2 2 2 2 2 2 2 2 2 2 2 2 2 2 2 2 2 2 2 2 2 2
left_child=4 17 3 -3 8 6 21 11 18 -7 -11 13 14 -8 -13 -16 -9 -2 19 -1 -20 -6 -23
right_child=1 2 -4 -5 5 9 7 16 -10 10 -12 12 -14 -15 15 -17 -18 -19 20 -21 -22 22 -24
leaf_value=0.0080658226548061575 -0.0036523763179884977 0.029206154107627825 0 0 0 0 -0.0074102976445453734 -0.013246123491325975 0.0090872311251299371 0.01486190397813022 0 0 0 0 0.011248183823300706 0 0 0 -0.0063724290832925688 0 0 0.0058748670295921167 0
leaf_weight=165.03857517242432 82.694287098944187 347.43133411556482 27.209020733833313 41.564553052186966 65.459945648908615 57.491568118333817 382.12052574008703 956.84236598014832 466.96585710346699 47.0789665132761 18.797456979751587 31.977883577346802 64.142886817455292 93.676591336727142 247.78019148856401 29.14735870808363 194.19269566237926 26.24817281961441 89.358986794948578 99.236242204904556 63.450521394610405 66.127269566059113 32.955567240715027
leaf_count=311 370 1033 106 93 218 126 975 3242 980 70 40 107 146 186 579 89 441 100 233 219 126 193 124
internal_value=0 0.0113879 0.0190781 0.0242691 -0.000190149 -0.00409308 -0.00671317 -0.00789214 0.00468277 0.00398765 0.0104014 0 0.00197172 -0.00428355 0.00704911 0.00889897 -0.012073 0 0 0.000447866 -0.00271278 0 0.00160494
internal_weight=0 525.147 416.205 388.996 3171.84 2287.79 2164.42 1999.88 884.05 123.368 65.8764 848.845 373.048 475.797 308.905 276.928 1151.04 108.942 417.084 264.275 152.81 164.543 99.0828
internal_count=10107 1702 1232 1126 8405 6536 6300 5765 1869 236 110 2082 921 1161 775 668 3683 470 889 530 359 535 317
is_linear=0
shrinkage=0.1517


Tree=38
num_leaves=15
num_cat=0
split_feature=4 4 15 4 15 15 4 15 15 4 15 4 4 4
split_gain=2.18941 1.97824 1.84994 2.65036 1.96607 0.969676 0.879836 1.52383 0.714648 0.209006 0.120884 0.0585889 0.0442859 0.00920074
threshold=167.59500000000003 46.005000000000003 7.5833333333333348 107.98500000000001 2.6125000000000003 8.4166666666666696 22.985000000000003 7.291666666666667 1.7416666666666669 96.595000000000013 0.18333333333333338 13.775000000000002 151.52000000000004 159.00500000000002
decision_type=2 2 2 2 2 2 2 2 2 2 2 2 2 2
left_child=1 6 3 4 8 -2 11 -8 10 -4 -3 -1 -5 -14
right_child=5 2 9 12 -6 -7 7 -9 -10 -11 -12 -13 13 -15
leaf_value=0 0.010337063576044372 0 0.0051281642162946508 0.0012821043817003459 -0.017986306836336084 0 0.011506608047717141 0 0 0 -0.0080918567027491155 -0.0023560733268989105 -0.0010187455178803173 0
leaf_weight=263.90168884396553 594.7861417606473 510.49847273528576 92.896613612771034 529.99762264639139 464.75409806519747 7.4072414189577094 440.08134120702744 25.822809383273125 164.89987087994814 35.815673261880875 203.65528658032417 152.88970044255257 114.01528680324554 93.605650849640369
leaf_count=530 1940 1037 184 1634 1492 26 912 68 526 100 592 359 391 316
internal_value=0 -1.3627e-05 -0.0036508 -0.00580725 -0.00967534 0.00857165 0.00390972 0.00794792 0 0 -0.00452233 0 0 0
internal_weight=0 3092.83 2210.14 2081.43 1343.81 602.193 882.696 465.904 879.054 128.712 714.154 416.791 737.619 207.621
internal_count=10107 8141 6272 5988 3647 1966 1869 980 2155 284 1629 889 2341 707
is_linear=0
shrinkage=0.1517


Tree=39
num_leaves=22
num_cat=0
split_feature=3 3 3 3 3 3 3 3 3 15 15 3 3 3 3 15 3 3 15 15 15
split_gain=1.96384 0.729251 0.145416 2.31409 1.78175 9.1736 1.09931 2.75405 0.818118 0.410141 0.321149 0.796996 0.985604 0.717429 0.24093 0.167187 0.109287 0.0861501 0.0720371 0.28362 0.110962
threshold=107.99000000000002 178.26500000000001 -6.294999999999999 3.8850000000000002 7.6900000000000004 8.0050000000000008 14.270000000000001 17.955000000000002 70.955000000000013 8.5833333333333339 5.5500000000000007 46.945000000000007 37.190000000000005 23.945000000000004 9.9450000000000021 7.5833333333333348 -73.499999999999986 7.9850000000000012 2.9500000000000006 3.535714285714286 10.750000000000002
decision_type=2 2 2 2 2 2 2 2 2 2 2 2 2 2 2 2 2 2 2 2 2
left_child=2 -2 16 -4 -5 17 9 -8 10 14 11 12 13 -9 -7 -12 -1 -6 -10 -20 -21
right_child=1 -3 3 4 5 6 7 8 18 -11 15 -13 -14 -15 -16 -17 -18 -19 19 20 -22
leaf_value=0 0.015892923517115003 0 -0.011305069442153131 0.0083487873982391967 0 0 -0.016188528152883134 0.0071466900073816125 -0.0026279769074688229 0 -0.0045240866088295684 0 0.01503240638789166 -0.0018491688392225298 0.0098514379882849706 0.0013515479774246491 0.0028696045370476993 -0.033767625558172913 0.0065642259562667263 -0.0046596234791154 0
leaf_weight=33.914657592773438 156.52089950442314 48.320328637957573 349.01391189545393 457.08147358894348 14.76790329068899 117.56529638171196 151.84047819674015 208.24853548407555 291.05056643486023 7.7895341366529456 82.12837016582489 374.45181456208229 203.25040645897388 283.46164081990719 325.05327567458153 87.610014647245407 275.1968380510807 99.400236703455448 30.862353280186653 88.362743675708771 7.5636162608861914
leaf_count=125 298 103 1306 1303 59 367 445 471 657 22 237 920 434 718 777 173 837 486 67 286 16
internal_value=0 0.0124206 0 -0.000934332 0 -0.00107947 0 0 0 0.00684202 0.003665 0.00466616 0.00745153 0 0.00807582 0 0.00111057 -0.0323738 -0.00138479 0 -0.00266356
internal_weight=0 204.841 3488.61 3179.5 2830.49 2373.41 2259.24 1808.83 1656.99 450.408 1239.15 1069.41 694.961 491.71 442.619 169.738 309.111 114.168 417.839 126.789 95.9264
internal_count=10107 401 9706 8744 7438 6135 5590 4424 3979 1166 2953 2543 1623 1189 1144 410 962 545 1026 369 302
is_linear=0
shrinkage=0.1517


Tree=40
num_leaves=27
num_cat=0
split_feature=16 3 3 16 16 16 3 3 3 3 16 16 16 3 3 3 16 16 16 16 3 3 3 3 3 3
split_gain=2.82843 2.58315 3.29087 2.03856 1.62726 0.814232 4.81406 0.503494 1.00078 0.451165 0.321976 0.0864199 0.537489 0.0172229 0.0504924 0.0119124 0.662998 1.02985 0.219077 1.76697 1.99355 0.221777 0.526493 0.121229 0.648258 0.0593739
threshold=5.5000000000000009 8.0050000000000008 -7.9849999999999994 9.5000000000000018 18.500000000000004 2.5000000000000004 1.4450000000000001 7.9850000000000012 29.010000000000002 45.005000000000003 1.5000000000000002 12.500000000000002 15.500000000000002 95.055000000000021 66.00500000000001 14.270000000000001 16.500000000000004 8.5000000000000018 17.500000000000004 11.500000000000002 107.99000000000002 24.005000000000006 85.015000000000015 65.035000000000011 35.035000000000004 19.695000000000004
decision_type=2 2 2 2 2 2 2 2 2 2 2 2 2 2 2 2 2 2 2 2 2 2 2 2 2 2
left_child=5 2 11 -4 -5 7 -7 10 -9 -10 -1 -2 -13 14 -11 16 17 -3 19 23 -21 -20 -23 24 25 -17
right_child=1 15 3 4 -6 6 -8 8 9 13 -12 12 -14 -15 -16 18 -18 -19 21 20 -22 22 -24 -25 -26 -27
leaf_value=0.0083071318753051415 0 0 0 -0.028866223356168862 0 0 0.018765660025778872 -0.0073775668868461767 0.0060310869507880921 0 0 0.010981182345462234 0 0 -0.0022778051847160137 0 0 0.013375342450133712 0 -0.017430502551619438 0 0.0096318902809318097 0 0.0037822975162815644 -0.0084013140059082825 0.0024622032167692025
leaf_weight=185.27714340388775 119.82700091600418 102.42009560763836 298.12636382132769 190.48764621466398 42.501651272177696 114.21894496679306 422.59983493387699 331.80707250535488 197.43298853933811 214.63755126297474 29.450695335865021 29.067652195692062 13.562079772353171 241.53443036973476 210.3478942066431 70.480791077017784 25.484839662909508 129.29257024824619 22.595907390117645 211.43265464901924 15.013225525617598 95.612164959311485 15.39048784971237 105.01449830830097 121.36103127896786 135.38204300403595
leaf_count=343 441 323 1166 802 127 413 1141 719 366 432 76 63 46 468 454 222 82 341 64 662 35 199 44 304 419 355
internal_value=0 -0.00278126 -0.00969335 -0.015507 -0.024651 0.00500276 0.010547 0 0 0.00027565 0.00616633 0 0.00387233 0 -0.000877286 0 0.000888582 0.00694824 0 -0.00259498 -0.012018 0 0.00503898 0 0 0
internal_weight=0 1743.05 693.572 531.116 232.989 1947.31 536.819 1410.49 1195.76 863.953 214.728 162.457 42.6297 666.52 424.985 1049.48 257.198 231.713 792.283 658.684 226.446 133.599 111.003 432.238 327.224 205.863
internal_count=10107 5695 2645 2095 929 4412 1554 2858 2439 1720 419 550 109 1354 886 3050 746 664 2304 1997 697 307 243 1300 996 577
is_linear=0
shrinkage=0.1517


Tree=41
num_leaves=25
num_cat=0
split_feature=3 3 3 3 3 3 3 3 3 15 15 3 3 3 3 15 3 3 15 15 15 3 3 3
split_gain=1.55944 0.623516 0.140732 7.61931 1.2727 1.84461 0.665557 2.16432 0.62139 0.323034 0.223538 0.615027 0.810114 0.582989 0.196492 0.0893034 0.0786113 0.0776922 0.0662893 0.23067 0.0856053 0.0272344 0.0226675 0.00791735
threshold=107.99000000000002 178.26500000000001 7.6900000000000004 8.0050000000000008 3.8850000000000002 -6.294999999999999 14.270000000000001 17.955000000000002 70.955000000000013 8.5833333333333339 5.5500000000000007 46.945000000000007 37.190000000000005 23.945000000000004 9.9450000000000021 7.5833333333333348 -73.499999999999986 18.030000000000005 2.9500000000000006 3.535714285714286 10.750000000000002 7.9850000000000012 29.010000000000002 24.005000000000006
decision_type=2 2 2 2 2 2 2 2 2 2 2 2 2 2 2 2 2 2 2 2 2 2 2 2
left_child=2 -2 4 21 5 16 9 -8 10 14 11 12 13 17 -5 -12 -1 -9 -10 -20 -21 -4 23 -15
right_child=1 -3 3 6 -6 -7 7 8 18 -11 15 -13 -14 22 -16 -17 -18 -19 19 20 -22 -23 -24 -25
leaf_value=0 0.014299523948001044 0 0 0 0.0073186545018788327 -0.0098379839596560367 -0.014349637081429787 0 -0.0022959075454089439 0 -0.0033194642531063812 0 0.013310794998863926 0 0.0081026951681058834 0.00094712958950799765 0.0023009847389611053 0.006981350951217556 0.0061597257833420514 -0.0038853337885190941 0 -0.030874297404130616 0 -0.0032632312479115521
leaf_weight=33.918610423803329 155.84014683961868 48.323892414569855 14.742075800895689 117.82926464080811 456.80834452062845 347.30287420749664 151.88550141453743 12.872303128242491 291.43480509519577 7.7895232290029517 82.055019810795784 374.2230810970068 202.11275796592236 16.177428916096687 325.39451502263546 87.560855522751808 275.30330386757851 195.38697831332684 30.934895500540733 88.186754480004311 7.5632789433002463 98.002037599682808 169.54949893057346 97.67357362806797
leaf_count=125 298 103 59 367 1303 1306 445 32 657 22 237 920 434 38 777 173 837 439 67 286 16 486 411 269
internal_value=0 0.0110502 0 -0.00114708 0 0 0 0 0 0.00532077 0.0032258 0.00404628 0.00649983 0 0.00653189 0 0.000559641 0.00637505 -0.000977093 0 -0.0019686 -0.0296786 -0.00186202 -0.00298493
internal_weight=0 204.164 3484.71 2371.37 1113.33 656.525 2258.63 1807.62 1655.73 451.013 1237.61 1068 693.773 491.66 443.224 169.616 309.222 208.259 418.12 126.685 95.75 112.744 283.401 113.851
internal_count=10107 401 9706 6135 3571 2268 5590 4424 3979 1166 2953 2543 1623 1189 1144 410 962 471 1026 369 302 545 718 307
is_linear=0
shrinkage=0.1517


Tree=42
num_leaves=18
num_cat=0
split_feature=1 15 15 1 15 15 15 15 1 1 15 1 15 1 1 1 1
split_gain=6.48149 1.92632 2.40457 0.803699 1.75262 3.0693 0.645927 1.76738 1.25783 0.932634 0.372019 0.0990765 0.0667228 0.0269124 0.555582 0.542896 0.322235
threshold=727.11500000000012 0.78192934782608703 2.8452380952380958 427.59500000000008 1.2649122807017545 5.1000000000000005 2.1909090909090914 5.366666666666668 490.61000000000007 676.79000000000008 6.8750000000000009 717.81500000000017 11.250000000000002 45.215000000000011 16.805000000000003 7.9850000000000012 342.49500000000006
decision_type=2 2 2 2 2 2 2 2 2 2 2 2 2 2 2 2 2
left_child=3 -2 -3 4 13 -6 8 9 -5 -8 -7 -10 -12 14 15 -1 -15
right_child=1 2 -4 6 5 10 7 -9 11 -11 12 -13 -14 16 -16 -17 -18
leaf_value=0 0 -0.026177936529340258 0 0 0.01195236798346778 -0.0055302620943064717 -0.018096225839307867 0 0.011031832855382895 0 0.0021700682387518449 0 0 -0.0027281288254404502 0.0059550282257348269 -0.0076371784946482352 0
leaf_weight=109.42278870940208 62.291333749890327 220.95020209997892 20.891774371266365 47.989774413406849 1066.3593363314867 189.31662295758724 144.82002145051956 11.287668377161024 167.42413876950741 14.255859591066836 240.02346612513065 8.1202786862850171 29.425931096076965 906.72019711136818 287.92657262086868 124.2011960297823 34.539384633302689
leaf_count=196 244 1057 81 184 3007 555 642 28 582 55 558 30 72 1907 547 287 75
internal_value=0 -0.016964 -0.0218034 0.00320823 0.00419749 0.00765169 0 -0.00752981 0.000571862 -0.0149185 0 0.0104591 0.000227843 0 0.00100413 0 -5.12935e-05
internal_weight=0 304.133 241.842 3381.83 2987.94 1525.13 393.898 170.364 223.534 159.076 458.766 175.544 269.449 1462.81 521.551 233.624 941.26
internal_count=10107 1382 1138 8725 7204 4192 1521 725 796 697 1185 612 630 3012 1030 483 1982
is_linear=0
shrinkage=0.1517


Tree=43
num_leaves=19
num_cat=0
split_feature=1 15 15 1 15 15 1 15 15 1 1 1 15 15 15 15 1 1
split_gain=4.92164 1.5945 2.10253 0.975674 1.28059 4.3641 1.27182 1.15708 0.781783 0.503189 0.496269 0.0885161 0.0818341 0.0852669 0.0360705 0.000103481 2.14452e-08 0.16728
threshold=727.11500000000012 0.78192934782608703 2.8452380952380958 46.770000000000003 2.6125000000000003 1.0571895424836604 657.8900000000001 7.416666666666667 9.1666666666666696 81.285000000000011 688.06000000000006 193.93000000000004 2.6515151515151518 1.851648351648352 1.531372549019608 0.59474734042553201 176.42500000000004 104.44000000000001
decision_type=2 2 2 2 2 2 2 2 2 2 2 2 2 2 2 2 2 2
left_child=3 -2 14 8 5 11 -7 9 12 -6 -11 -5 13 -1 -3 -13 17 -9
right_child=1 2 -4 4 7 6 -8 16 -10 10 -12 15 -14 -15 -16 -17 -18 -19
leaf_value=0.0017478874586979707 0 0 0 -0.0015590665121418905 0 0.014648252414231179 0 0 0 -0.0078971649914845784 0 0.00010704969524795423 0.018506151985656933 0 -0.03233547156804107 0 0 0.0048237052435833655
leaf_weight=552.28044861555099 62.291333749890327 143.25070503354073 20.891774371266365 748.03929325938225 80.94847147166729 620.77150193601847 48.121388264000416 46.815012231469154 11.90681356191635 812.5173109844327 8.7076327353715879 117.80684228241444 111.99433116614819 15.629560455679892 74.80726720392704 80.172666922211647 52.510197907686234 75.44525420665741
leaf_count=1092 244 601 81 1548 196 1881 191 110 34 2610 28 227 229 49 456 237 146 147
internal_value=0 -0.0148614 -0.0193451 0.00278027 0 0.00365793 0.0127436 -0.00238855 0.00794129 -0.00579205 -0.00701684 0 0.00934919 0 -0.0235941 0 0 1.52481e-06
internal_weight=0 301.241 238.95 3383.67 2691.86 1614.91 668.893 1076.94 691.811 902.173 821.225 946.019 679.904 567.91 218.058 197.98 174.77 122.26
internal_count=10107 1382 1138 8725 7321 4084 2072 3237 1404 2834 2638 2012 1370 1141 1057 464 403 257
is_linear=0
shrinkage=0.1517


Tree=44
num_leaves=26
num_cat=0
split_feature=1 3 3 3 3 3 1 1 3 1 1 3 1 3 1 1 1 1 1 1 1 1 3 3 1
split_gain=4.68743 3.76108 1.35919 2.09753 4.31043 2.57314 1.70514 1.4059 1.00102 0.899604 1.03168 0.84645 0.398364 0.352538 0.338734 0.28908 0.154564 0.104806 0.0426207 0.013489 0.0115993 0.015016 0.00597852 0.042007 0.00121029
threshold=427.59500000000008 76.665000000000006 17.955000000000002 7.410000000000001 8.0050000000000008 14.270000000000001 20.005000000000006 347.51000000000005 75.685000000000016 247.42500000000004 63.280000000000008 3.3350000000000004 146.96500000000003 1.1050000000000002 12.515000000000002 231.77500000000003 193.93000000000004 187.33000000000001 756.61000000000013 16.805000000000003 45.215000000000011 22.995000000000001 107.99000000000002 178.26500000000001 22.995000000000001
decision_type=2 2 2 2 2 2 2 2 2 2 2 2 2 2 2 2 2 2 2 2 2 2 2 2 2
left_child=2 11 3 6 -5 14 -1 -7 9 10 20 13 -12 -2 -6 19 24 -14 -3 -16 21 -4 -10 -24 -8
right_child=1 18 8 4 5 7 16 -9 22 -11 12 -13 17 -15 15 -17 -18 -19 -20 -21 -22 -23 23 -25 -26
leaf_value=0.015010670520119219 -0.0056484601489845583 0.0027869352042613022 0 -0.025820019346631008 0 -0.018258673560479541 0 0 0 0 0.018474407551790105 -0.018439722871171668 0 0.0012910136336759827 0 0 0.0025095686061647566 0.0032593300184267995 0 0.011291079646874327 0 0.0014630472470255728 0.0022109475289359176 0 -0.001899754496888444
leaf_weight=174.84460155665874 156.29600116610527 36.281136155128479 42.804397478699684 100.54445961862803 44.388221502304077 111.52542524039745 7.1697481274604788 10.346783146262167 326.20468120276928 170.62661682069302 338.14585800468922 426.73827712237835 97.163826003670692 62.885925233364105 20.70048500597477 77.515714600682259 256.99770274758339 137.03836560249329 11.730593413114546 217.03254492580891 181.75890509784222 196.1450407654047 135.90415547788143 45.358649358153343 297.75737509131432
leaf_count=322 704 89 87 419 91 306 16 26 745 495 664 1794 243 257 41 233 829 302 59 458 386 371 256 95 819
internal_value=0 -0.00942726 0.00352178 0 -0.00643574 0 0.00497155 -0.0128216 0.00628102 0.00859042 0.0102243 -0.01457 0.0143798 0 0.00736426 0.00891114 0 0 0 0.0108853 0 0.000900818 0 0.000712176 -0.0018636
internal_weight=0 693.932 2989.97 1318.82 582.054 481.509 736.769 121.872 1671.15 1163.68 993.056 645.92 572.348 219.182 359.637 315.249 561.925 234.202 48.0117 237.733 420.708 238.949 507.467 181.263 304.927
internal_count=10107 2903 7204 3560 1574 1155 1986 332 3644 2548 2053 2755 1209 961 823 732 1664 545 148 499 844 458 1096 351 835
is_linear=0
shrinkage=0.1517


Tree=45
num_leaves=26
num_cat=0
split_feature=2 3 2 3 2 2 2 2 2 3 3 3 3 2 3 2 3 3 2 2 2 3 3 2 2
split_gain=5.99377 6.43558 11.6092 4.80957 3.33366 3.17947 3.07813 2.56106 1.87795 1.63653 1.19847 0.967178 2.10481 0.91223 0.871889 0.796369 0.738462 0.669244 0.426764 0.311186 0.204191 0.145768 0.0951892 0.0260509 0.310407
threshold=42.021944444444451 22.390000000000004 13.296666666666669 21.780000000000005 126.47250000000001 66.143068181818194 75.010000000000019 60.41375 41.721250000000005 -25.984999999999996 17.955000000000002 178.26500000000001 68.205000000000013 47.650000000000013 107.99000000000002 40.56013793103449 -83.489999999999995 55.970000000000006 58.068333333333335 7.9850000000000012 31.501250000000002 71.975000000000009 3.0050000000000003 45.998333333333342 64.66125000000001
decision_type=2 2 2 2 2 2 2 2 2 2 2 2 2 2 2 2 2 2 2 2 2 2 2 2 2
left_child=1 2 19 5 6 7 17 13 10 -7 16 12 -6 -2 -8 20 -4 23 -19 -1 -3 -20 -9 -5 -25
right_child=3 15 8 4 11 9 14 22 -10 -11 -12 -13 -14 -15 -16 -17 -18 18 21 -21 -22 -23 -24 24 -26
leaf_value=0.0050832436618375295 0 0 0 0 0 0 -0.01249195098687271 0 0 0.026906075188688615 0 0 0.024199371798961762 0.012567066174328692 0 0 -0.026923460363162868 0 0.010564597185689037 0 0.011775761693166419 0 -0.011605485805931405 -0.0047100810863520944 0
leaf_weight=187.14640893042088 151.33627812564373 88.881698936223984 10.903610125184057 61.831540405750275 7.5903761684894553 10.746841788291929 579.67598693817854 20.974157527089119 9.3080230653285962 318.44382844120264 92.410712122917175 48.37953308224678 138.49980401992798 299.08659164607525 45.231234773993492 17.615610435605049 680.87804337590933 10.445865437388418 166.04041934013367 168.1364610940218 133.90812554955482 20.635238721966743 63.481554768979549 259.0160176306963 86.635529369115829
leaf_count=364 551 180 39 123 29 47 1607 89 25 1020 200 103 262 976 95 44 2207 24 321 389 239 50 257 630 236
internal_value=0 -0.00656534 -0.0128275 0.00558495 0 0.0139197 -0.00321052 0 -0.023089 0.02481 -0.0242532 0.0148954 0.0190162 0.00865214 -0.0108678 0.00492778 -0.0263254 0 0.00732394 0 0.00917834 0.00954788 -0.0102926 0 -0.00117308
internal_weight=0 1389.19 1148.78 2288.05 1423.98 864.069 1229.51 534.879 793.5 329.191 784.192 194.47 146.09 450.423 624.907 240.405 691.782 604.605 197.122 355.283 222.79 186.676 84.4557 407.483 345.652
internal_count=10107 3687 3224 6420 3480 2940 3086 1873 2471 1067 2446 394 291 1527 1702 463 2246 1384 395 753 419 371 346 989 866
is_linear=0
shrinkage=0.1517


Tree=46
num_leaves=17
num_cat=0
split_feature=2 15 15 2 15 15 2 2 2 15 15 15 2 15 15 15
split_gain=4.21866 6.72381 9.66786 3.8634 2.45907 2.71652 0.930248 0.937142 0.27815 0.189301 0.0980064 0.0796579 0.0409715 0.0341207 0.0241258 0.276513
threshold=42.021944444444451 0.18333333333333338 4.4500000000000011 17.012500000000003 0.18333333333333338 4.7083333333333348 17.012500000000003 40.001666666666672 42.351785714285725 3.8452380952380958 8.1666666666666696 0.47683535281539563 7.9850000000000012 6.291666666666667 3.1339285714285716 3.3875000000000006
decision_type=2 2 2 2 2 2 2 2 2 2 2 2 2 2 2 2
left_child=1 6 3 -3 -2 8 12 -8 -6 11 13 -10 -1 -4 -13 -16
right_child=4 2 10 -5 5 -7 7 -9 9 -11 -12 14 -14 -15 15 -17
leaf_value=0 0 0 0 -0.028749226181262744 0 0 0.011913668348660842 0 0 0 0 0.01420650464234813 -0.0020466913367404335 0.0042896101161187059 0 0.005499141966482551
leaf_weight=103.15216186642647 694.37283837795258 154.57740885019302 105.3911130875349 512.56959826499224 8.315624386072157 361.32463451474905 243.76588977873325 19.451289281249046 33.75589482486248 152.92737992107868 36.252095937728882 866.44864886254072 135.08597949147224 75.244569912552834 52.688890554010868 120.42512372881174
leaf_count=188 1417 380 277 1802 32 980 448 45 85 481 91 2867 303 153 206 352
internal_value=0 -0.00496045 -0.0138426 -0.0232455 0.00505339 0.00834397 0.00272725 0.00854765 0.0116538 0.0118967 0 0.0128016 0 0.00288682 0.0130538 0
internal_weight=0 1385.49 884.035 667.147 2290.26 1595.89 501.455 263.217 1234.56 1226.25 216.888 1073.32 238.238 180.636 1039.56 173.114
internal_count=10107 3687 2703 2182 6420 5003 984 493 4023 3991 521 3510 491 430 3425 558
is_linear=0
shrinkage=0.1517


Tree=47
num_leaves=11
num_cat=0
split_feature=1 15 15 15 15 15 15 15 1 15
split_gain=4.54445 4.9935 3.09164 1.47167 2.68167 0.461343 0.295627 0.235785 0.0466851 0.0196383
threshold=427.59500000000008 1.2247474747474751 5.366666666666668 1.2649122807017545 5.1000000000000005 1.5419580419580423 1.0784615384615386 6.8750000000000009 1040.0800000000002 11.250000000000002
decision_type=2 2 2 2 2 2 2 2 2 2
left_child=3 6 5 -1 -5 -3 -2 -6 -8 -9
right_child=1 2 -4 4 7 -7 8 9 -10 -11
leaf_value=0 0 0 0 0.010950170488804494 -0.0044124572394661299 -0.024600082521532392 0.0075117429683148043 0.0011707828299899821 0 0
leaf_weight=1459.8081723153591 161.90921337157488 119.28214637935162 11.480897903442381 1064.3109208270907 188.69320876151323 337.04385618120432 49.60859227180481 239.70213857293129 12.903147980570791 29.383182168006897
leaf_count=3012 646 445 29 3007 555 1581 148 558 54 72
internal_value=0 -0.00888504 -0.0177966 0.00373391 0.00689751 -0.0212979 0 0 0.00667892 0
internal_weight=0 692.228 467.807 2981.9 1522.09 456.326 224.421 457.779 62.5117 269.085
internal_count=10107 2903 2055 7204 4192 2026 848 1185 202 630
is_linear=0
shrinkage=0.1517


end of trees

feature_importances:
original_gross_amt_min=275
diff_trans_mean=200
original_gross_amt_sum=119
original_gross_amt_max=105
original_gross_amt_mean=63
diff_trans_max=35

parameters:
[boosting: gbdt]
[objective: binary]
[metric: auc]
[tree_learner: serial]
[device_type: cpu]
[data: ]
[valid: ]
[num_iterations: 50]
[learning_rate: 0.1517]
[num_leaves: 143]
[num_threads: 0]
[deterministic: 0]
[force_col_wise: 0]
[force_row_wise: 0]
[histogram_pool_size: -1]
[max_depth: 12]
[min_data_in_leaf: 20]
[min_sum_hessian_in_leaf: 0.001]
[bagging_fraction: 0.9]
[pos_bagging_fraction: 1]
[neg_bagging_fraction: 1]
[bagging_freq: 0]
[bagging_seed: 3]
[feature_fraction: 0.4]
[feature_fraction_bynode: 1]
[feature_fraction_seed: 2]
[extra_trees: 0]
[extra_seed: 6]
[early_stopping_round: 10]
[first_metric_only: 1]
[max_delta_step: 0]
[lambda_l1: 30]
[lambda_l2: 90]
[linear_lambda: 0]
[min_gain_to_split: 0]
[drop_rate: 0.1]
[max_drop: 50]
[skip_drop: 0.5]
[xgboost_dart_mode: 0]
[uniform_drop: 0]
[drop_seed: 4]
[top_rate: 0.2]
[other_rate: 0.1]
[min_data_per_group: 100]
[max_cat_threshold: 32]
[cat_l2: 10]
[cat_smooth: 10]
[max_cat_to_onehot: 4]
[top_k: 20]
[monotone_constraints: ]
[monotone_constraints_method: basic]
[monotone_penalty: 0]
[feature_contri: ]
[forcedsplits_filename: ]
[refit_decay_rate: 0.9]
[cegb_tradeoff: 1]
[cegb_penalty_split: 0]
[cegb_penalty_feature_lazy: ]
[cegb_penalty_feature_coupled: ]
[path_smooth: 0]
[interaction_constraints: ]
[verbosity: 1]
[saved_feature_importance_type: 0]
[linear_tree: 0]
[max_bin: 255]
[max_bin_by_feature: ]
[min_data_in_bin: 3]
[bin_construct_sample_cnt: 200000]
[data_random_seed: 1]
[is_enable_sparse: 1]
[enable_bundle: 1]
[use_missing: 1]
[zero_as_missing: 0]
[feature_pre_filter: 1]
[pre_partition: 0]
[two_round: 0]
[header: 0]
[label_column: ]
[weight_column: ]
[group_column: ]
[ignore_column: ]
[categorical_feature: 0,5,6,7,8,9,10,11,12,13,14]
[forcedbins_filename: ]
[precise_float_parser: 0]
[objective_seed: 5]
[num_class: 1]
[is_unbalance: 1]
[scale_pos_weight: 1]
[sigmoid: 1]
[boost_from_average: 1]
[reg_sqrt: 0]
[alpha: 0.9]
[fair_c: 1]
[poisson_max_delta_step: 0.7]
[tweedie_variance_power: 1.5]
[lambdarank_truncation_level: 30]
[lambdarank_norm: 1]
[label_gain: ]
[eval_at: ]
[multi_error_top_k: 1]
[auc_mu_weights: ]
[num_machines: 1]
[local_listen_port: 12400]
[time_out: 120]
[machine_list_filename: ]
[machines: ]
[gpu_platform_id: -1]
[gpu_device_id: -1]
[gpu_use_dp: 0]
[num_gpu: 1]

end of parameters

pandas_categorical:[]
