{"learner":{"attributes":{"best_iteration":"5","best_ntree_limit":"6","best_score":"0.7228572758667389"},"feature_names":["trans_tax_desc_mode_string","original_gross_amt_sum","original_gross_amt_mean","original_gross_amt_min","original_gross_amt_max","original_cur_mode_string","merchant_name_mode_string","trans_cac_code_1_mode_string","trans_cac_code_2_mode_string","trans_cac_code_3_mode_string","directorate_mode_string","flag_nan_bill_amt_max","trans_date_weekday_mode_string","trans_date_day_mode_string","trans_date_wom_mode_string","diff_trans_mean","diff_trans_max"],"feature_types":["float","float","float","float","float","float","float","float","float","float","float","float","float","float","float","float","float"],"gradient_booster":{"model":{"gbtree_model_param":{"num_parallel_tree":"1","num_trees":"8","size_leaf_vector":"0"},"tree_info":[0,0,0,0,0,0,0,0],"trees":[{"base_weights":[-1.4042132E0,-7.9819953E-1,-1.6149819E0,-8.17552E-1,-0E0,-1.4131821E0,-1.7279205E0,-8.8200986E-1,-3.163539E-1,-0E0,-1.4159858E0,-1.7301039E0,-0E0,-0E0,-8.880866E-1,-4.6696034E-1,-0E0,-1.4242642E0,-0E0],"categories":[],"categories_nodes":[],"categories_segments":[],"categories_sizes":[],"default_left":[1,1,1,1,0,1,1,1,1,0,1,0,0,0,0,0,0,0,0],"id":0,"left_children":[1,3,5,7,-1,9,11,13,15,-1,17,-1,-1,-1,-1,-1,-1,-1,-1],"loss_changes":[2.9744482E2,9.477936E0,8.589844E0,8.720184E0,0E0,2.0871582E0,3.5024414E0,3.4307861E0,3.0420103E0,0E0,1.840332E0,0E0,0E0,0E0,0E0,0E0,0E0,0E0,0E0],"parents":[2147483647,0,0,1,1,2,2,3,3,5,5,6,6,7,7,8,8,10,10],"right_children":[2,4,6,8,-1,10,12,14,16,-1,18,-1,-1,-1,-1,-1,-1,-1,-1],"split_conditions":[1.5E0,2.1557872E-1,2.3618E2,1.9397816E-1,-0E0,-1.6206001E1,1.942E2,-3.6015E1,1.6148302E-1,-0E0,2.4134362E-1,-1.7301039E0,-0E0,-0E0,-8.880866E-1,-4.6696034E-1,-0E0,-1.4242642E0,-0E0],"split_indices":[16,7,1,10,0,2,2,2,13,0,6,0,0,0,0,0,0,0,0],"split_type":[0,0,0,0,0,0,0,0,0,0,0,0,0,0,0,0,0,0,0],"sum_hessian":[2.52675E3,6.655E2,1.86125E3,6.485E2,1.7E1,7.045E2,1.15675E3,5.5625E2,9.225E1,1.75E0,7.0275E2,1.155E3,1.75E0,3.25E0,5.53E2,5.575E1,3.65E1,6.955E2,7.25E0],"tree_param":{"num_deleted":"0","num_feature":"17","num_nodes":"19","size_leaf_vector":"0"}},{"base_weights":[-3.7223196E-1,-6.8836056E-2,-5.615945E-1,-2.0437345E-1,-0E0,-3.9139017E-1,-7.3245126E-1,-2.7246818E-1,-0E0,-2.4387674E-1,8.2813405E-2,-6.047033E-1,-1.5788515E-1,-7.4815047E-1,-0E0,-3.133442E-1,-0E0,-4.0415272E-1,-0E0,2.6103637E-1,-1.269184E-1,-6.2684697E-1,-0E0,-2.7806422E-1,-0E0,-7.5656277E-1,-0E0],"categories":[],"categories_nodes":[],"categories_segments":[],"categories_sizes":[],"default_left":[1,1,1,1,1,1,1,1,0,1,1,1,1,1,0,0,0,0,0,0,0,0,0,0,0,0,0],"id":1,"left_children":[1,3,5,7,9,11,13,15,-1,17,19,21,23,25,-1,-1,-1,-1,-1,-1,-1,-1,-1,-1,-1,-1,-1],"loss_changes":[8.581334E1,7.065381E0,1.6601654E1,4.966118E0,7.1669197E0,1.798014E1,4.1559753E0,3.806099E0,0E0,5.763301E0,1.3113357E1,4.410431E0,7.1245365E0,3.8233337E0,0E0,0E0,0E0,0E0,0E0,0E0,0E0,0E0,0E0,0E0,0E0,0E0,0E0],"parents":[2147483647,0,0,1,1,2,2,3,3,4,4,5,5,6,6,7,7,9,9,10,10,11,11,12,12,13,13],"right_children":[2,4,6,8,10,12,14,16,-1,18,20,22,24,26,-1,-1,-1,-1,-1,-1,-1,-1,-1,-1,-1,-1,-1],"split_conditions":[3.5E0,1.3319671E-1,3.2219E2,1.9164631E-1,1.339723E-1,9.975E0,1.3495833E2,1.8241422E-1,-0E0,1.9397816E-1,1.840816E-1,2.1557872E-1,1.5442482E-1,2.4134362E-1,-0E0,-3.133442E-1,-0E0,-4.0415272E-1,-0E0,2.6103637E-1,-1.269184E-1,-6.2684697E-1,-0E0,-2.7806422E-1,-0E0,-7.5656277E-1,-0E0],"split_indices":[16,10,1,7,14,3,2,14,0,10,10,7,13,6,0,0,0,0,0,0,0,0,0,0,0,0,0],"split_type":[0,0,0,0,0,0,0,0,0,0,0,0,0,0,0,0,0,0,0,0,0,0,0,0,0,0,0],"sum_hessian":[1.603062E3,6.368599E2,9.66202E2,2.4051733E2,3.963426E2,5.1499396E2,4.512081E2,2.017769E2,3.874044E1,8.3288246E1,3.1305435E2,2.4592215E2,2.690718E2,4.3985385E2,1.1354232E1,1.9108752E2,1.0689378E1,6.497561E1,1.8312635E1,1.9488393E2,1.1817042E2,2.4000925E2,5.912909E0,1.7821446E2,9.085733E1,4.367842E2,3.0696402E0],"tree_param":{"num_deleted":"0","num_feature":"17","num_nodes":"27","size_leaf_vector":"0"}},{"base_weights":[-1.0706561E-1,-0E0,-2.4422231E-1,-1.06050886E-1,1.03716746E-1,-4.45776E-1,-1.03911534E-1,4.0142443E-2,-1.77948E-1,1.9988781E-1,-0E0,-4.5895717E-1,-0E0,-3.865467E-1,-0E0,-0E0,2.3432162E-1,-2.0781122E-1,-0E0,-0E0,2.4651143E-1,-1.0770401E-1,-0E0,-0E0,-4.676001E-1,-0E0,-4.6816576E-1,1.4870436E-1,-1.1040205E-1],"categories":[],"categories_nodes":[],"categories_segments":[],"categories_sizes":[],"default_left":[1,1,1,1,1,1,1,1,1,1,1,1,0,1,1,0,0,0,0,0,0,0,0,0,0,0,0,0,0],"id":2,"left_children":[1,3,5,7,9,11,13,15,17,19,21,23,-1,25,27,-1,-1,-1,-1,-1,-1,-1,-1,-1,-1,-1,-1,-1,-1],"loss_changes":[1.9845322E1,7.656943E0,1.0782101E1,4.770164E0,5.6682005E0,2.1011734E0,9.008467E0,1.7366155E0,2.6306858E0,4.1829042E0,7.8162503E-1,1.0248375E0,0E0,2.3961678E0,4.505408E0,0E0,0E0,0E0,0E0,0E0,0E0,0E0,0E0,0E0,0E0,0E0,0E0,0E0,0E0],"parents":[2147483647,0,0,1,1,2,2,3,3,4,4,5,5,6,6,7,7,8,8,9,9,10,10,11,11,13,13,14,14],"right_children":[2,4,6,8,10,12,14,16,18,20,22,24,-1,26,28,-1,-1,-1,-1,-1,-1,-1,-1,-1,-1,-1,-1,-1,-1],"split_conditions":[1.59365E2,2.2565E1,1.421183E-1,7.6533337E0,7.1975E1,2.2143729E-1,4.4300835E1,5.05E0,1.09994995E2,1.2450011E-1,9.5240005E1,1.6167499E2,-0E0,-1.1995E1,5.5E0,-0E0,2.3432162E-1,-2.0781122E-1,-0E0,-0E0,2.4651143E-1,-1.0770401E-1,-0E0,-0E0,-4.676001E-1,-0E0,-4.6816576E-1,1.4870436E-1,-1.1040205E-1],"split_indices":[1,3,13,2,3,0,2,4,4,10,1,1,0,3,16,0,0,0,0,0,0,0,0,0,0,0,0,0,0],"split_type":[0,0,0,0,0,0,0,0,0,0,0,0,0,0,0,0,0,0,0,0,0,0,0,0,0,0,0,0,0],"sum_hessian":[1.2714116E3,6.951412E2,5.762705E2,3.2104398E2,3.740972E2,2.0637273E2,3.6989777E2,6.013051E1,2.6091348E2,2.4185196E2,1.3224524E2,2.0460742E2,1.7653025E0,8.6092896E1,2.8380487E2,2.7707905E1,3.2422604E1,2.5196228E2,8.951195E0,1.4341671E1,2.2751028E2,6.638058E1,6.5864655E1,2.84337E0,2.0176405E2,1.6787653E1,6.9305244E1,1.0196294E2,1.8184195E2],"tree_param":{"num_deleted":"0","num_feature":"17","num_nodes":"29","size_leaf_vector":"0"}},{"base_weights":[-3.1393267E-2,-1.5595238E-1,2.2530327E-2,-0E0,-2.5495693E-1,-1.1598638E-1,9.2802085E-2,1.3321616E-1,-1.2278852E-2,-3.25546E-1,-0E0,-1.8359652E-1,-0E0,-3.5533577E-2,2.5721696E-1,-0E0,4.0623775E-1,-9.637021E-2,-0E0,-3.7160987E-1,-0E0,-2.371873E-1,-0E0,2.1043696E-2,-0E0,-2.0297305E-1,-0E0,-0E0,3.2954514E-1],"categories":[],"categories_nodes":[],"categories_segments":[],"categories_sizes":[],"default_left":[1,1,1,1,1,1,1,1,1,1,0,1,1,1,1,0,0,0,0,0,0,0,0,0,0,0,0,0,0],"id":3,"left_children":[1,3,5,7,9,11,13,15,17,19,-1,21,23,25,27,-1,-1,-1,-1,-1,-1,-1,-1,-1,-1,-1,-1,-1,-1],"loss_changes":[9.253215E0,6.944438E0,7.2475038E0,5.256539E-1,5.896538E0,2.1239624E0,1.398917E1,1.2465627E0,8.3733004E-1,3.9058704E0,0E0,2.4798446E0,7.689192E-3,3.4644752E0,8.255461E0,0E0,0E0,0E0,0E0,0E0,0E0,0E0,0E0,0E0,0E0,0E0,0E0,0E0,0E0],"parents":[2147483647,0,0,1,1,2,2,3,3,4,4,5,5,6,6,7,7,8,8,9,9,11,11,12,12,13,13,14,14],"right_children":[2,4,6,8,10,12,14,16,18,20,-1,22,24,26,28,-1,-1,-1,-1,-1,-1,-1,-1,-1,-1,-1,-1,-1,-1],"split_conditions":[1.3319671E-1,8.5455E1,1.5166804E-1,1.339723E-1,9.5015E1,1.6455093E-1,4.2337662E-1,5.5475E1,1.6768005E-1,7.416667E0,-0E0,8.4901596E1,1.6717353E-1,1.3085908E-1,1.0293287E-1,-0E0,4.0623775E-1,-9.637021E-2,-0E0,-3.7160987E-1,-0E0,-2.371873E-1,-0E0,2.1043696E-2,-0E0,-2.0297305E-1,-0E0,-0E0,3.2954514E-1],"split_indices":[10,1,6,14,3,13,15,1,13,15,0,2,13,7,9,0,0,0,0,0,0,0,0,0,0,0,0,0,0],"split_type":[0,0,0,0,0,0,0,0,0,0,0,0,0,0,0,0,0,0,0,0,0,0,0,0,0,0,0,0,0],"sum_hessian":[1.1774822E3,4.1119977E2,7.662825E2,1.5114111E2,2.6005865E2,2.0979272E2,5.5648975E2,2.7561678E1,1.2357944E2,2.1475865E2,4.5299988E1,1.4613925E2,6.365347E1,2.7881784E2,2.776719E2,1.7936682E1,9.624997E0,9.118184E1,3.2397594E1,1.928682E2,2.1890455E1,1.3124062E2,1.4898633E1,1.6363476E1,4.7289993E1,9.1669E1,1.8714883E2,3.288418E1,2.4478772E2],"tree_param":{"num_deleted":"0","num_feature":"17","num_nodes":"29","size_leaf_vector":"0"}},{"base_weights":[-1.24688875E-2,9.001454E-3,-1.883495E-1,-2.1791965E-2,1.6723566E-1,-2.7123776E-1,-0E0,8.308768E-3,-1.387331E-1,-0E0,2.3831025E-1,-0E0,-3.1860536E-1,-4.619988E-2,5.295312E-2,-3.2357773E-1,-1.5000374E-3,-6.472501E-2,-0E0,3.1165904E-1,-0E0,-0E0,-3.4275836E-1],"categories":[],"categories_nodes":[],"categories_segments":[],"categories_sizes":[],"default_left":[1,1,1,1,1,1,0,1,1,1,1,0,1,0,0,0,0,0,0,0,0,0,0],"id":4,"left_children":[1,3,5,7,9,11,-1,13,15,17,19,-1,21,-1,-1,-1,-1,-1,-1,-1,-1,-1,-1],"loss_changes":[6.1836677E0,6.262392E0,4.2748756E0,4.027602E0,4.8126674E0,1.7196026E0,0E0,1.4034775E0,2.491168E0,9.2501715E-2,5.210206E0,0E0,1.43997E0,0E0,0E0,0E0,0E0,0E0,0E0,0E0,0E0,0E0,0E0],"parents":[2147483647,0,0,1,1,2,2,3,3,4,4,5,5,7,7,8,8,9,9,10,10,12,12],"right_children":[2,4,6,8,10,12,-1,14,16,18,20,-1,22,-1,-1,-1,-1,-1,-1,-1,-1,-1,-1],"split_conditions":[4.37125E2,1.07990005E2,2.0351001E2,1.07955E2,1.2937872E-1,1.0293287E-1,-0E0,8.995E0,6.8815E1,3.8303998E2,1.594E2,-0E0,8.5005005E1,-4.619988E-2,5.295312E-2,-3.2357773E-1,-1.5000374E-3,-6.472501E-2,-0E0,3.1165904E-1,-0E0,-0E0,-3.4275836E-1],"split_indices":[1,4,4,1,9,9,0,3,4,1,3,0,4,0,0,0,0,0,0,0,0,0,0],"split_type":[0,0,0,0,0,0,0,0,0,0,0,0,0,0,0,0,0,0,0,0,0,0,0],"sum_hessian":[1.1611396E3,9.849906E2,1.7614906E2,7.723508E2,2.1263976E2,1.4252788E2,3.3621193E1,5.46975E2,2.253759E2,2.368803E1,1.8895172E2,2.2564304E1,1.1996357E2,1.4540948E2,4.015655E2,6.4402725E1,1.6097318E2,2.1080326E1,2.607704E0,1.6370377E2,2.5247961E1,4.190313E0,1.15773254E2],"tree_param":{"num_deleted":"0","num_feature":"17","num_nodes":"23","size_leaf_vector":"0"}},{"base_weights":[-2.662468E-2,-0E0,-1.0110422E-1,-4.0998686E-2,1.08503096E-1,-0E0,-1.4832063E-1,-8.866878E-2,-0E0,-3.938653E-1,2.3847955E-1,-0E0,9.311932E-2,-0E0,-1.8760827E-1,-0E0,-1.4611469E-1,-0E0,5.0290186E-2,-4.294674E-1,-0E0,3.431559E-1,-0E0,-0E0,2.736289E-1,-0E0,1.0578075E-1,-2.1355955E-1,-0E0],"categories":[],"categories_nodes":[],"categories_segments":[],"categories_sizes":[],"default_left":[1,1,1,1,1,1,1,1,1,1,1,0,1,1,1,0,0,0,0,0,0,0,0,0,0,0,0,0,0],"id":5,"left_children":[1,3,5,7,9,11,13,15,17,19,21,-1,23,25,27,-1,-1,-1,-1,-1,-1,-1,-1,-1,-1,-1,-1,-1,-1],"loss_changes":[2.6173966E0,3.8773499E0,2.7925868E0,1.8820562E0,1.4672831E1,3.188868E-1,3.257092E0,1.4694607E0,3.2028502E-1,8.468051E-1,5.888379E0,0E0,1.6576324E0,1.3522135E-1,2.6678104E0,0E0,0E0,0E0,0E0,0E0,0E0,0E0,0E0,0E0,0E0,0E0,0E0,0E0,0E0],"parents":[2147483647,0,0,1,1,2,2,3,3,4,4,5,5,6,6,7,7,8,8,9,9,10,10,12,12,13,13,14,14],"right_children":[2,4,6,8,10,12,14,16,18,20,22,-1,24,26,28,-1,-1,-1,-1,-1,-1,-1,-1,-1,-1,-1,-1,-1,-1],"split_conditions":[7.5E0,9.321839E-1,8.2035E1,1.470967E-1,1.339723E-1,1.3085908E-1,1.7029412E0,1.4796549E-1,1.481757E-1,1.9108531E-1,1.5551758E-1,-0E0,3.695E0,1.339723E-1,2.2143729E-1,-0E0,-1.4611469E-1,-0E0,5.0290186E-2,-4.294674E-1,-0E0,3.431559E-1,-0E0,-0E0,2.736289E-1,-0E0,1.0578075E-1,-2.1355955E-1,-0E0],"split_indices":[16,15,1,12,14,7,15,14,13,13,14,0,3,14,0,0,0,0,0,0,0,0,0,0,0,0,0,0,0],"split_type":[0,0,0,0,0,0,0,0,0,0,0,0,0,0,0,0,0,0,0,0,0,0,0,0,0,0,0,0,0],"sum_hessian":[1.1566481E3,8.213146E2,3.353335E2,5.7524365E2,2.4607092E2,5.3111225E1,2.8222226E2,3.6158005E2,2.1366359E2,3.434762E1,2.1172331E2,1.7335867E1,3.5775356E1,1.3661284E1,2.6856097E2,1.602278E2,2.0135226E2,8.802381E1,1.2563978E2,3.3321182E1,1.0264342E0,1.5174373E2,5.9979584E1,1.0376988E1,2.5398369E1,2.5766935E0,1.1084591E1,2.6552332E2,3.0376575E0],"tree_param":{"num_deleted":"0","num_feature":"17","num_nodes":"29","size_leaf_vector":"0"}},{"base_weights":[-1.0264216E-2,-1.0317218E-1,2.0846838E-2,-0E0,-4.5771712E-1,2.3361644E-1,-0E0,-1.100834E-1,1.2287251E-1,-5.8320546E-1,-0E0,2.8756315E-1,-0E0,-2.3204611E-1,4.816194E-3,-2.1114337E-1,-0E0,1.8442866E-1,-0E0,-6.1367255E-1,-0E0,4.0868717E-1,-0E0,-2.947437E-1,-0E0,1.4498521E-1,-0E0],"categories":[],"categories_nodes":[],"categories_segments":[],"categories_sizes":[],"default_left":[1,1,1,1,1,1,1,1,1,1,0,1,0,1,1,0,0,0,0,0,0,0,0,0,0,0,0],"id":6,"left_children":[1,3,5,7,9,11,13,15,17,19,-1,21,-1,23,25,-1,-1,-1,-1,-1,-1,-1,-1,-1,-1,-1,-1],"loss_changes":[4.137651E0,1.0620975E1,5.113019E0,3.9898362E0,2.4795218E0,2.2676568E0,2.374681E0,2.775088E0,1.8042046E0,1.4362946E0,0E0,2.2058544E0,0E0,1.2412355E0,1.2914624E0,0E0,0E0,0E0,0E0,0E0,0E0,0E0,0E0,0E0,0E0,0E0,0E0],"parents":[2147483647,0,0,1,1,2,2,3,3,4,4,5,5,6,6,7,7,8,8,9,9,11,11,13,13,14,14],"right_children":[2,4,6,8,10,12,14,16,18,20,-1,22,-1,24,26,-1,-1,-1,-1,-1,-1,-1,-1,-1,-1,-1,-1],"split_conditions":[8.995E0,7.67E0,1.409E1,3.895E0,8.025E0,1.65E1,1.6855E1,1.5615337E-1,8.07765E2,1.33181E3,-0E0,1.504522E-1,-0E0,1.7848763E-1,2.1994999E1,-2.1114337E-1,-0E0,1.8442866E-1,-0E0,-6.1367255E-1,-0E0,4.0868717E-1,-0E0,-2.947437E-1,-0E0,1.4498521E-1,-0E0],"split_indices":[3,3,3,3,3,16,3,13,1,1,0,7,0,13,3,0,0,0,0,0,0,0,0,0,0,0,0],"split_type":[0,0,0,0,0,0,0,0,0,0,0,0,0,0,0,0,0,0,0,0,0,0,0,0,0,0,0],"sum_hessian":[1.1449219E3,3.6726352E2,7.776583E2,2.9885727E2,6.840626E1,9.888552E1,6.7877277E2,1.8441365E2,1.144436E2,4.90413E1,1.9364956E1,9.234666E1,6.5388694E0,4.2827454E1,6.359453E2,1.11647484E2,7.2766174E1,1.0328467E2,1.1158936E1,4.8009735E1,1.0315659E0,5.842173E1,3.3924923E1,4.045255E1,2.3749037E0,6.114047E1,5.748049E2],"tree_param":{"num_deleted":"0","num_feature":"17","num_nodes":"27","size_leaf_vector":"0"}},{"base_weights":[-1.0363119E-2,-3.964261E-2,6.562193E-2,1.0506509E-2,-6.611024E-2,1.2526765E-1,-0E0,-0E0,1.3511847E-1,-1.10518E-1,-0E0,-0E0,2.0346378E-1,-1.7563139E-1,-0E0,-0E0,-6.95916E-2,-0E0,1.9269449E-1,-1.3913466E-1,-0E0,5.8127455E-2,-6.0073685E-2,-0E0,2.991594E-1,-1.9786978E-1,-0E0],"categories":[],"categories_nodes":[],"categories_segments":[],"categories_sizes":[],"default_left":[1,1,1,1,1,1,1,1,1,1,1,0,1,1,0,0,0,0,0,0,0,0,0,0,0,0,0],"id":7,"left_children":[1,3,5,7,9,11,13,15,17,19,21,-1,23,25,-1,-1,-1,-1,-1,-1,-1,-1,-1,-1,-1,-1,-1],"loss_changes":[2.2767434E0,1.7749135E0,2.043787E0,1.5027254E0,2.8260427E0,2.0303016E0,3.658877E-1,4.326105E-1,9.781221E-1,1.9498949E0,8.2715523E-1,0E0,1.8662858E0,4.4451684E-2,0E0,0E0,0E0,0E0,0E0,0E0,0E0,0E0,0E0,0E0,0E0,0E0,0E0],"parents":[2147483647,0,0,1,1,2,2,3,3,4,4,5,5,6,6,7,7,8,8,9,9,10,10,12,12,13,13],"right_children":[2,4,6,8,10,12,14,16,18,20,22,-1,24,26,-1,-1,-1,-1,-1,-1,-1,-1,-1,-1,-1,-1,-1],"split_conditions":[1.722043E-1,4.6315002E1,1.0687E2,2.2985E1,5.5379997E1,8.46E0,1.421183E-1,1.2530708E-1,1.339723E-1,1.76725E2,1.840816E-1,-0E0,3.6708336E1,1.4796549E-1,-0E0,-0E0,-6.95916E-2,-0E0,1.9269449E-1,-1.3913466E-1,-0E0,5.8127455E-2,-6.0073685E-2,-0E0,2.991594E-1,-1.9786978E-1,-0E0],"split_indices":[7,1,3,4,3,3,13,13,14,4,10,0,2,14,0,0,0,0,0,0,0,0,0,0,0,0,0],"split_type":[0,0,0,0,0,0,0,0,0,0,0,0,0,0,0,0,0,0,0,0,0,0,0,0,0,0,0],"sum_hessian":[1.1379478E3,9.167699E2,2.211779E2,1.8639116E2,7.303787E2,1.9021468E2,3.096322E1,1.039486E2,8.2442566E1,4.92079E2,2.3829973E2,6.9689514E1,1.2052517E2,1.0861607E1,2.0101614E1,1.5621441E1,8.832716E1,1.6072395E1,6.637017E1,4.108343E2,8.124472E1,1.7309456E2,6.520516E1,4.4459187E1,7.606599E1,9.480554E0,1.3810527E0],"tree_param":{"num_deleted":"0","num_feature":"17","num_nodes":"27","size_leaf_vector":"0"}}]},"name":"gbtree"},"learner_model_param":{"base_score":"5E-1","boost_from_average":"1","num_class":"0","num_feature":"17","num_target":"1"},"objective":{"name":"binary:logistic","reg_loss_param":{"scale_pos_weight":"1"}}},"version":[1,7,6]}